{"learner":{"attributes":{"scikit_learn":"{\"_estimator_type\": \"classifier\"}"},"feature_names":["career_runs","career_win_rate","career_place_rate","career_earnings","cd_runs","cd_win_rate","class_num","class_step","or_numeric","or_change","or_trend_3","avg_last_3_pos","wins_last_3","days_since_last","field_size","is_turf","going_numeric","race_score","draw","draw_pct","draw_group_win_rate","weight_lbs","weight_vs_avg","is_top_weight","weight_change","age","is_peak_age","is_3yo","is_veteran","age_vs_avg","avg_btn_last_3","unlucky_last","has_blinkers","has_visor","first_time_blinkers","gear_changed","is_handicap","is_maiden","is_pattern","prize_log","is_sprint","is_mile","is_middle","is_staying","jockey_career_runs","jockey_course_runs","jockey_trainer_runs"],"feature_types":["int","float","float","float","int","float","float","float","float","float","float","float","int","float","int","int","float","int","float","float","float","float","float","int","float","int","int","int","int","float","float","int","int","int","int","int","int","int","int","float","int","int","int","int","int","int","int"],"gradient_booster":{"model":{"gbtree_model_param":{"num_parallel_tree":"1","num_trees":"200"},"iteration_indptr":[0,1,2,3,4,5,6,7,8,9,10,11,12,13,14,15,16,17,18,19,20,21,22,23,24,25,26,27,28,29,30,31,32,33,34,35,36,37,38,39,40,41,42,43,44,45,46,47,48,49,50,51,52,53,54,55,56,57,58,59,60,61,62,63,64,65,66,67,68,69,70,71,72,73,74,75,76,77,78,79,80,81,82,83,84,85,86,87,88,89,90,91,92,93,94,95,96,97,98,99,100,101,102,103,104,105,106,107,108,109,110,111,112,113,114,115,116,117,118,119,120,121,122,123,124,125,126,127,128,129,130,131,132,133,134,135,136,137,138,139,140,141,142,143,144,145,146,147,148,149,150,151,152,153,154,155,156,157,158,159,160,161,162,163,164,165,166,167,168,169,170,171,172,173,174,175,176,177,178,179,180,181,182,183,184,185,186,187,188,189,190,191,192,193,194,195,196,197,198,199,200],"tree_info":[0,0,0,0,0,0,0,0,0,0,0,0,0,0,0,0,0,0,0,0,0,0,0,0,0,0,0,0,0,0,0,0,0,0,0,0,0,0,0,0,0,0,0,0,0,0,0,0,0,0,0,0,0,0,0,0,0,0,0,0,0,0,0,0,0,0,0,0,0,0,0,0,0,0,0,0,0,0,0,0,0,0,0,0,0,0,0,0,0,0,0,0,0,0,0,0,0,0,0,0,0,0,0,0,0,0,0,0,0,0,0,0,0,0,0,0,0,0,0,0,0,0,0,0,0,0,0,0,0,0,0,0,0,0,0,0,0,0,0,0,0,0,0,0,0,0,0,0,0,0,0,0,0,0,0,0,0,0,0,0,0,0,0,0,0,0,0,0,0,0,0,0,0,0,0,0,0,0,0,0,0,0,0,0,0,0,0,0,0,0,0,0,0,0,0,0,0,0,0,0],"trees":[{"base_weights":[-6.278701E-3,4.4600627E-1,-2.8712645E-1,1.5548213E-1,8.425872E-1,3.2865508E-3,-4.50315E-1,7.320255E-1,3.4377314E-2,1.4673634E0,6.6139054E-1,1.6584887E-1,-3.6941078E-1,-3.453244E-1,-6.145352E-1,3.9042565E-1,9.8068243E-1,-2.537724E-1,1.5814902E-1,2.863611E0,1.3538934E0,4.8920095E-1,1.0601436E0,5.3685285E-2,5.104707E-1,-4.8621494E-1,-1.16644405E-1,-1.5078643E-1,-4.313286E-1,-7.0596373E-1,-5.221697E-1,-4.9375463E-2,5.7703173E-1,1.4999057E0,7.4697554E-1,-3.5016242E-1,1.0427511E-2,4.4964325E-1,4.037915E-2,-1.0536642E-1,3.0484836E0,1.8100467E0,1.1124679E0,2.6023132E-1,6.8354505E-1,1.0239221E0,3.1090522E0,1.3535638E-1,-2.4485244E-1,-1.1072666E-1,6.598135E-1,-5.353456E-1,-1.3160176E-3,1.4861585E0,-1.7859325E-1,-3.9243105E-1,-1.4656926E-2,-5.4536825E-1,-2.8995177E-1,-7.461161E-1,-4.759252E-1,-4.012355E-1,-6.1894906E-1,5.6376275E-2,-2.1467095E-2,9.5231645E-2,3.883249E-2,6.584958E-2,1.715901E-1,8.973004E-2,3.300492E-2,-1.5598813E-2,-4.7946814E-2,5.6132644E-2,-1.1486816E-2,5.6837756E-2,-4.216473E-3,1.2929745E-2,-2.3178158E-2,4.142077E-2,-5.729347E-2,3.1798646E-1,6.0840603E-2,1.4618461E-1,2.2896326E-1,6.807919E-2,1.3622954E-1,4.8297673E-2,4.645053E-3,3.5044737E-2,8.160936E-2,4.729781E-2,1.144463E-1,5.6429494E-2,3.5604182E-1,-4.7794103E-5,4.158699E-2,-1.155066E-2,-5.2081164E-2,7.67185E-2,-2.3114676E-2,3.0267103E-2,8.5908026E-2,-2.5097132E-2,-5.969433E-2,1.268817E-1,-2.1329446E-2,2.5184688E-1,5.885302E-2,-4.742607E-2,2.0859686E-3,-5.876729E-2,-2.6191263E-2,-8.94978E-3,3.616578E-2,-4.4962473E-2,-7.172395E-2,-4.409829E-2,-1.2057953E-2,-6.506309E-2,-8.508724E-2,-5.049425E-2,9.911479E-2,-3.0014131E-2,-6.08599E-2,-7.4704945E-2,-4.9609292E-2],"categories":[],"categories_nodes":[],"categories_segments":[],"categories_sizes":[],"default_left":[0,0,0,0,0,0,0,0,0,0,0,0,0,0,0,0,0,0,0,0,0,0,0,0,0,0,0,0,0,0,0,0,0,0,0,0,0,0,0,0,0,0,0,0,0,0,0,0,0,0,0,0,0,0,0,0,0,0,0,0,0,0,0,0,0,0,0,0,0,0,0,0,0,0,0,0,0,0,0,0,0,0,0,0,0,0,0,0,0,0,0,0,0,0,0,0,0,0,0,0,0,0,0,0,0,0,0,0,0,0,0,0,0,0,0,0,0,0,0,0,0,0,0,0,0,0,0],"id":0,"left_children":[1,3,5,7,9,11,13,15,17,19,21,23,25,27,29,31,33,35,37,39,41,43,45,47,49,51,53,55,57,59,61,63,65,67,69,71,73,75,77,79,81,83,85,87,89,91,93,95,97,99,101,103,105,107,109,111,113,115,117,119,121,123,125,-1,-1,-1,-1,-1,-1,-1,-1,-1,-1,-1,-1,-1,-1,-1,-1,-1,-1,-1,-1,-1,-1,-1,-1,-1,-1,-1,-1,-1,-1,-1,-1,-1,-1,-1,-1,-1,-1,-1,-1,-1,-1,-1,-1,-1,-1,-1,-1,-1,-1,-1,-1,-1,-1,-1,-1,-1,-1,-1,-1,-1,-1,-1,-1],"loss_changes":[1.6958639E3,5.891339E2,3.9034082E2,2.0617027E2,2.4381482E2,1.7964766E2,9.070715E1,4.3157013E1,8.711794E1,7.30094E1,1.14693054E2,7.9777374E1,2.6530922E1,5.3792297E1,1.698767E1,1.788676E1,3.4796753E1,1.8696121E1,5.863514E1,1.9849335E1,4.7622498E1,5.2053833E1,3.4309875E1,3.8038414E1,4.709355E1,1.46651E1,2.8656322E1,3.2506577E1,3.5821533E1,9.158813E0,1.1762573E1,6.7840853E0,1.0455227E1,1.5387054E1,1.2621506E1,1.3428955E1,1.36749325E1,2.8728035E1,2.9505604E1,9.7878015E-1,8.812988E0,2.2435577E1,3.1137268E1,2.5715336E1,2.7718414E1,3.252594E1,7.5071106E0,4.6660233E1,1.1903975E1,1.0652991E1,2.8829498E1,9.6414795E0,1.57891245E1,8.476751E0,1.62971E1,8.920864E0,1.7867104E1,1.9985413E1,2.5489601E1,8.200684E0,7.134281E0,9.440056E0,8.571671E0,0E0,0E0,0E0,0E0,0E0,0E0,0E0,0E0,0E0,0E0,0E0,0E0,0E0,0E0,0E0,0E0,0E0,0E0,0E0,0E0,0E0,0E0,0E0,0E0,0E0,0E0,0E0,0E0,0E0,0E0,0E0,0E0,0E0,0E0,0E0,0E0,0E0,0E0,0E0,0E0,0E0,0E0,0E0,0E0,0E0,0E0,0E0,0E0,0E0,0E0,0E0,0E0,0E0,0E0,0E0,0E0,0E0,0E0,0E0,0E0,0E0,0E0,0E0,0E0],"parents":[2147483647,0,0,1,1,2,2,3,3,4,4,5,5,6,6,7,7,8,8,9,9,10,10,11,11,12,12,13,13,14,14,15,15,16,16,17,17,18,18,19,19,20,20,21,21,22,22,23,23,24,24,25,25,26,26,27,27,28,28,29,29,30,30,31,31,32,32,33,33,34,34,35,35,36,36,37,37,38,38,39,39,40,40,41,41,42,42,43,43,44,44,45,45,46,46,47,47,48,48,49,49,50,50,51,51,52,52,53,53,54,54,55,55,56,56,57,57,58,58,59,59,60,60,61,61,62,62],"right_children":[2,4,6,8,10,12,14,16,18,20,22,24,26,28,30,32,34,36,38,40,42,44,46,48,50,52,54,56,58,60,62,64,66,68,70,72,74,76,78,80,82,84,86,88,90,92,94,96,98,100,102,104,106,108,110,112,114,116,118,120,122,124,126,-1,-1,-1,-1,-1,-1,-1,-1,-1,-1,-1,-1,-1,-1,-1,-1,-1,-1,-1,-1,-1,-1,-1,-1,-1,-1,-1,-1,-1,-1,-1,-1,-1,-1,-1,-1,-1,-1,-1,-1,-1,-1,-1,-1,-1,-1,-1,-1,-1,-1,-1,-1,-1,-1,-1,-1,-1,-1,-1,-1,-1,-1,-1,-1],"split_conditions":[9E0,5E-1,4.3333335E0,6E0,6E0,1.4E1,1.3E1,0E0,-1E0,4E0,8E-1,1E0,7.5E-1,-5E-1,0E0,-2.75E0,5E0,2.909091E0,-3.3333334E-1,1.362E3,2.6666667E0,1.4285715E-1,3.68058E5,4E-1,-1E0,6.5E0,8.9771185E0,-1E0,8.333333E-1,1E0,0E0,-7.2727275E-1,-1.6666667E-1,-4E0,8.3333336E1,6.3333335E0,-7E-1,7.3333335E0,6E1,8.854E2,5E0,1.31E2,-3.75E-1,-1.4285715E-1,0E0,-2.6923077E0,3.7E1,1.8333334E0,1.2E1,-5.4545456E-1,1.2E1,4E0,7.4074075E-2,1.5216E3,-2E0,1.27E2,4.3E0,7.3333335E0,0E0,1.6E1,1.07333336E2,1.7E1,1E0,5.6376275E-2,-2.1467095E-2,9.5231645E-2,3.883249E-2,6.584958E-2,1.715901E-1,8.973004E-2,3.300492E-2,-1.5598813E-2,-4.7946814E-2,5.6132644E-2,-1.1486816E-2,5.6837756E-2,-4.216473E-3,1.2929745E-2,-2.3178158E-2,4.142077E-2,-5.729347E-2,3.1798646E-1,6.0840603E-2,1.4618461E-1,2.2896326E-1,6.807919E-2,1.3622954E-1,4.8297673E-2,4.645053E-3,3.5044737E-2,8.160936E-2,4.729781E-2,1.144463E-1,5.6429494E-2,3.5604182E-1,-4.7794103E-5,4.158699E-2,-1.155066E-2,-5.2081164E-2,7.67185E-2,-2.3114676E-2,3.0267103E-2,8.5908026E-2,-2.5097132E-2,-5.969433E-2,1.268817E-1,-2.1329446E-2,2.5184688E-1,5.885302E-2,-4.742607E-2,2.0859686E-3,-5.876729E-2,-2.6191263E-2,-8.94978E-3,3.616578E-2,-4.4962473E-2,-7.172395E-2,-4.409829E-2,-1.2057953E-2,-6.506309E-2,-8.508724E-2,-5.049425E-2,9.911479E-2,-3.0014131E-2,-6.08599E-2,-7.4704945E-2,-4.9609292E-2],"split_indices":[14,2,11,14,14,14,14,9,9,14,2,2,2,29,24,22,14,22,29,3,11,22,3,29,7,22,39,9,22,9,29,29,29,24,10,11,29,11,17,3,18,21,22,29,9,22,45,22,14,29,46,18,1,3,24,21,22,11,9,14,10,14,31,0,0,0,0,0,0,0,0,0,0,0,0,0,0,0,0,0,0,0,0,0,0,0,0,0,0,0,0,0,0,0,0,0,0,0,0,0,0,0,0,0,0,0,0,0,0,0,0,0,0,0,0,0,0,0,0,0,0,0,0,0,0,0,0],"split_type":[0,0,0,0,0,0,0,0,0,0,0,0,0,0,0,0,0,0,0,0,0,0,0,0,0,0,0,0,0,0,0,0,0,0,0,0,0,0,0,0,0,0,0,0,0,0,0,0,0,0,0,0,0,0,0,0,0,0,0,0,0,0,0,0,0,0,0,0,0,0,0,0,0,0,0,0,0,0,0,0,0,0,0,0,0,0,0,0,0,0,0,0,0,0,0,0,0,0,0,0,0,0,0,0,0,0,0,0,0,0,0,0,0,0,0,0,0,0,0,0,0,0,0,0,0,0,0],"sum_hessian":[1.3348809E4,5.1134233E3,8.235386E3,2.9521514E3,2.161272E3,2.9631301E3,5.272256E3,5.1158856E2,2.4405627E3,4.8429562E2,1.6769762E3,2.0635918E3,8.995381E2,3.2180007E3,2.054255E3,2.1659917E2,2.949894E2,7.330102E2,1.7075525E3,3.457789E1,4.4971774E2,1.1727753E3,5.0420102E2,1.5577493E3,5.0584268E2,6.14604E2,2.849341E2,9.87368E2,2.2306328E3,1.0290256E3,1.0252292E3,6.474376E1,1.5185541E2,8.988199E1,2.051074E2,5.368294E2,1.9618077E2,4.9055453E2,1.216998E3,2.0521002E0,3.2525787E1,1.5339449E2,2.9632327E2,5.3949713E2,6.3327814E2,4.9691605E2,7.2849555E0,1.2235647E3,3.341845E2,9.8090385E1,4.077523E2,5.57966E2,5.6637962E1,9.747476E0,2.7518665E2,3.5511594E2,6.322521E2,1.2331069E3,9.975259E2,8.7419464E2,1.5483096E2,4.5802875E2,5.672005E2,1.3236046E1,5.1507713E1,4.9455612E1,1.02399796E2,1.9187136E1,7.069485E1,1.4990591E2,5.5201492E1,2.1547052E2,3.213589E2,3.5706543E1,1.6047423E2,3.9502927E2,9.552526E1,9.1769916E2,2.992988E2,1.0260501E0,1.0260501E0,3.0576292E1,1.9494952E0,9.121585E1,6.2178635E1,1.0999257E2,1.8633069E2,2.6359225E2,2.7590488E2,1.8130305E2,4.5197507E2,9.00872E1,4.0682886E2,1.4364702E0,5.8484855E0,8.250469E2,3.9851785E2,2.2850136E2,1.0568316E2,1.1183946E1,8.690644E1,1.4693037E2,2.6082193E2,1.00245094E2,4.5772095E2,7.3875604E0,4.9250404E1,3.6937802E0,6.0536957E0,1.10300385E2,1.6488625E2,1.4087668E2,2.1423926E2,5.280054E2,1.0424669E2,7.942654E2,4.388416E2,5.264663E2,4.710596E2,4.611069E2,4.1308777E2,1.5247104E2,2.3599153E0,3.095593E2,1.4846945E2,2.7518665E2,2.9201385E2],"tree_param":{"num_deleted":"0","num_feature":"47","num_nodes":"127","size_leaf_vector":"1"}},{"base_weights":[-8.737212E-3,5.085764E-1,-2.0738795E-1,2.405408E-1,8.346626E-1,-3.137647E-1,1.733502E-1,5.6454384E-1,1.2309316E-1,1.5782468E0,7.343418E-1,-1.6461244E-1,-5.123764E-1,3.8843974E-1,-1.2264105E-1,1.5195129E0,5.054355E-1,-7.775371E-4,3.9626586E-1,1.1727186E0,2.0072193E0,5.804297E-1,9.8651665E-1,-7.453053E-2,-4.09123E-1,-4.3404382E-1,-6.734331E-1,1.0602609E0,2.9286113E-1,1.4032139E-1,-3.0016688E-1,1.7283014E0,8.179221E-2,1.7949322E-1,6.265914E-1,2.9544917E-1,-1.0467166E-1,6.6638106E-1,2.016727E-1,1.2807026E0,-6.3991085E-2,2.6713436E0,1.6785817E0,8.677855E-1,4.2310452E-1,7.8309584E-1,1.2326337E0,3.7801553E-2,-2.8990796E-1,-2.1829711E-1,-5.303309E-1,-3.51057E-1,-5.780536E-1,-7.2549176E-1,-4.8072374E-1,1.5355059E0,1.6453382E-1,2.62255E-1,2.0596676E0,-4.0610677E-1,2.2482844E-1,-3.4069178E-1,4.759749E-1,6.317479E-2,2.0738025E-1,1.3401277E-1,-6.024571E-2,-8.379946E-3,5.8992393E-2,1.9164428E-1,5.8647204E-2,1.5650917E-2,7.721241E-2,6.0142815E-4,-3.1107891E-2,1.6192964E-1,5.760629E-2,7.0203416E-2,9.6463505E-3,1.7715788E-1,1.0373209E-1,-4.885779E-2,1.24909796E-1,2.0140849E-1,3.499132E-1,1.1811253E-1,2.286262E-1,1.1085683E-1,5.375245E-2,8.8869434E-5,5.5654436E-2,6.892078E-2,1.827043E-1,1.2918201E-1,4.2067446E-2,-9.601394E-3,1.9343307E-2,-4.5986578E-2,-1.919314E-2,-3.0136151E-2,1.7467432E-3,-5.9213202E-2,-2.2700861E-2,-5.4698236E-2,-2.72759E-2,-5.27981E-2,-8.475747E-2,-5.6575317E-2,-7.792988E-2,-2.8990185E-2,-6.49825E-2,1.7828503E-1,9.212273E-2,3.4175606E-3,1.6327254E-1,5.069902E-2,1.2881227E-2,5.787006E-2,2.6544115E-1,-6.120974E-2,3.827793E-2,-9.548013E-3,4.335677E-2,-4.1809473E-2,5.566173E-3,1.6297333E-1,1.9524878E-2],"categories":[],"categories_nodes":[],"categories_segments":[],"categories_sizes":[],"default_left":[0,0,0,0,0,0,0,0,0,0,0,0,0,0,0,0,0,0,0,0,0,0,0,0,0,0,0,0,0,0,0,0,0,0,0,0,0,0,0,0,0,0,0,0,0,0,0,0,0,0,0,0,0,0,0,0,0,0,0,0,0,0,0,0,0,0,0,0,0,0,0,0,0,0,0,0,0,0,0,0,0,0,0,0,0,0,0,0,0,0,0,0,0,0,0,0,0,0,0,0,0,0,0,0,0,0,0,0,0,0,0,0,0,0,0,0,0,0,0,0,0,0,0,0,0,0,0],"id":1,"left_children":[1,3,5,7,9,11,13,15,17,19,21,23,25,27,29,31,33,35,37,39,41,43,45,47,49,51,53,55,57,59,61,63,65,67,69,71,73,75,77,79,81,83,85,87,89,91,93,95,97,99,101,103,105,107,109,111,113,115,117,119,121,123,125,-1,-1,-1,-1,-1,-1,-1,-1,-1,-1,-1,-1,-1,-1,-1,-1,-1,-1,-1,-1,-1,-1,-1,-1,-1,-1,-1,-1,-1,-1,-1,-1,-1,-1,-1,-1,-1,-1,-1,-1,-1,-1,-1,-1,-1,-1,-1,-1,-1,-1,-1,-1,-1,-1,-1,-1,-1,-1,-1,-1,-1,-1,-1,-1],"loss_changes":[1.3780101E3,3.249859E2,3.924666E2,7.769059E1,1.24022705E2,2.2426227E2,1.347934E2,2.9903885E1,5.0793587E1,3.2197754E1,5.6889282E1,9.526849E1,4.067981E1,7.841321E1,4.1659267E1,9.216423E0,2.015387E1,3.1846104E1,2.4481163E1,1.4037949E1,1.6275085E1,4.1305603E1,2.705603E1,7.65365E1,2.6821854E1,2.594278E1,1.0294098E1,6.458644E1,5.7573616E1,1.6713684E1,1.6911564E1,8.983963E0,5.114806E0,1.5229218E1,1.8216034E1,1.7673895E1,1.75039E1,1.59073715E1,1.4337525E1,9.650558E0,5.820027E0,9.163086E0,1.7347443E1,2.5262268E1,3.3669746E1,2.9043716E1,1.1544159E1,4.332998E1,1.7967949E1,8.898148E0,1.3203918E1,2.1181717E1,1.0325653E1,6.721161E0,7.188011E0,1.3459564E1,1.0263966E1,3.447175E1,1.4453629E1,8.12717E0,2.0928774E1,1.55676155E1,8.375681E0,0E0,0E0,0E0,0E0,0E0,0E0,0E0,0E0,0E0,0E0,0E0,0E0,0E0,0E0,0E0,0E0,0E0,0E0,0E0,0E0,0E0,0E0,0E0,0E0,0E0,0E0,0E0,0E0,0E0,0E0,0E0,0E0,0E0,0E0,0E0,0E0,0E0,0E0,0E0,0E0,0E0,0E0,0E0,0E0,0E0,0E0,0E0,0E0,0E0,0E0,0E0,0E0,0E0,0E0,0E0,0E0,0E0,0E0,0E0,0E0,0E0,0E0,0E0,0E0],"parents":[2147483647,0,0,1,1,2,2,3,3,4,4,5,5,6,6,7,7,8,8,9,9,10,10,11,11,12,12,13,13,14,14,15,15,16,16,17,17,18,18,19,19,20,20,21,21,22,22,23,23,24,24,25,25,26,26,27,27,28,28,29,29,30,30,31,31,32,32,33,33,34,34,35,35,36,36,37,37,38,38,39,39,40,40,41,41,42,42,43,43,44,44,45,45,46,46,47,47,48,48,49,49,50,50,51,51,52,52,53,53,54,54,55,55,56,56,57,57,58,58,59,59,60,60,61,61,62,62],"right_children":[2,4,6,8,10,12,14,16,18,20,22,24,26,28,30,32,34,36,38,40,42,44,46,48,50,52,54,56,58,60,62,64,66,68,70,72,74,76,78,80,82,84,86,88,90,92,94,96,98,100,102,104,106,108,110,112,114,116,118,120,122,124,126,-1,-1,-1,-1,-1,-1,-1,-1,-1,-1,-1,-1,-1,-1,-1,-1,-1,-1,-1,-1,-1,-1,-1,-1,-1,-1,-1,-1,-1,-1,-1,-1,-1,-1,-1,-1,-1,-1,-1,-1,-1,-1,-1,-1,-1,-1,-1,-1,-1,-1,-1,-1,-1,-1,-1,-1,-1,-1,-1,-1,-1,-1,-1,-1],"split_conditions":[8E0,4.8387095E-1,6E-1,6E0,5E0,1.2E1,1.2E1,4E0,2.1818182E0,7.1428573E-1,7.2727275E-1,2.25E0,1.6E1,1E1,1.0460331E1,7.1428573E-1,-2.8888888E0,-5.555556E-1,1.025E0,4E0,7.6333336E1,-3E-1,6E-1,8.3333336E-2,-1E-1,1.6666666E0,3.6666667E0,6.5E1,1.18E2,-6E0,1.15E2,7.4E1,-3.6363637E0,5.1E1,6E0,4E0,1.9333333E0,3E1,-8E-1,1.9E1,8.5E0,8.1E1,8.85E1,7E0,-9E-1,1.12E2,2.39E2,3.75E-1,1.28E2,2.5E0,4.4444447E0,-2.1111112E0,1.3333334E0,6E0,2.3E1,3.1E1,2.326642E4,5.3333336E-1,1.14E2,8.5E1,7.5E-1,4E0,3.3333335E-2,6.317479E-2,2.0738025E-1,1.3401277E-1,-6.024571E-2,-8.379946E-3,5.8992393E-2,1.9164428E-1,5.8647204E-2,1.5650917E-2,7.721241E-2,6.0142815E-4,-3.1107891E-2,1.6192964E-1,5.760629E-2,7.0203416E-2,9.6463505E-3,1.7715788E-1,1.0373209E-1,-4.885779E-2,1.24909796E-1,2.0140849E-1,3.499132E-1,1.1811253E-1,2.286262E-1,1.1085683E-1,5.375245E-2,8.8869434E-5,5.5654436E-2,6.892078E-2,1.827043E-1,1.2918201E-1,4.2067446E-2,-9.601394E-3,1.9343307E-2,-4.5986578E-2,-1.919314E-2,-3.0136151E-2,1.7467432E-3,-5.9213202E-2,-2.2700861E-2,-5.4698236E-2,-2.72759E-2,-5.27981E-2,-8.475747E-2,-5.6575317E-2,-7.792988E-2,-2.8990185E-2,-6.49825E-2,1.7828503E-1,9.212273E-2,3.4175606E-3,1.6327254E-1,5.069902E-2,1.2881227E-2,5.787006E-2,2.6544115E-1,-6.120974E-2,3.827793E-2,-9.548013E-3,4.335677E-2,-4.1809473E-2,5.566173E-3,1.6297333E-1,1.9524878E-2],"split_indices":[14,2,2,14,14,14,14,14,22,22,2,30,14,8,39,29,22,29,30,30,10,29,22,29,29,30,22,17,8,24,8,8,22,13,13,24,30,17,29,13,30,8,10,14,22,8,13,22,21,22,22,22,29,18,13,13,3,30,10,10,2,22,30,0,0,0,0,0,0,0,0,0,0,0,0,0,0,0,0,0,0,0,0,0,0,0,0,0,0,0,0,0,0,0,0,0,0,0,0,0,0,0,0,0,0,0,0,0,0,0,0,0,0,0,0,0,0,0,0,0,0,0,0,0,0,0,0],"split_type":[0,0,0,0,0,0,0,0,0,0,0,0,0,0,0,0,0,0,0,0,0,0,0,0,0,0,0,0,0,0,0,0,0,0,0,0,0,0,0,0,0,0,0,0,0,0,0,0,0,0,0,0,0,0,0,0,0,0,0,0,0,0,0,0,0,0,0,0,0,0,0,0,0,0,0,0,0,0,0,0,0,0,0,0,0,0,0,0,0,0,0,0,0,0,0,0,0,0,0,0,0,0,0,0,0,0,0,0,0,0,0,0,0,0,0,0,0,0,0,0,0,0,0,0,0,0,0],"sum_hessian":[1.3407342E4,3.7195547E3,9.687787E3,2.0424469E3,1.6771079E3,7.572294E3,2.1154932E3,5.423788E2,1.5000681E3,1.9761806E2,1.4794899E3,4.3256626E3,3.2466316E3,1.2250021E3,8.9049115E2,3.0173925E1,5.1220483E2,1.0327588E3,4.6730933E2,1.0350428E2,9.411378E1,9.207947E2,5.586952E2,3.1620234E3,1.1636392E3,2.1867593E3,1.0598721E3,1.513153E2,1.0736868E3,3.589707E2,5.3152045E2,2.6171183E1,4.0027413E0,1.3947107E2,3.727338E2,2.6768417E2,7.6507465E2,1.9466705E2,2.7264227E2,9.515978E1,8.344494E0,2.8795042E1,6.531874E1,3.2417322E2,5.9662146E2,3.0816898E2,2.5052623E2,2.0786887E3,1.0833347E3,4.5309756E2,7.105416E2,1.3894912E3,7.972682E2,8.3227576E2,2.2759637E2,9.839546E1,5.2919846E1,1.0565331E3,1.7153723E1,4.757058E1,3.1140015E2,5.0567834E2,2.5842075E1,6.9480176E0,1.9223166E1,1.0722799E0,2.9304616E0,8.5450264E1,5.4020805E1,9.832932E0,3.6290085E2,2.0829825E2,5.9385918E1,4.9864627E2,2.6642834E2,1.5387726E1,1.7927933E2,4.638212E1,2.2626015E2,2.9460974E1,6.569881E1,6.780076E0,1.5644177E0,1.7964462E1,1.0830579E1,3.7535374E1,2.7783363E1,1.8612143E2,1.3805179E2,1.4351945E2,4.53102E2,2.8426373E2,2.3905233E1,2.3295442E2,1.7571804E1,1.1178872E3,9.608015E2,3.947964E2,6.885383E2,3.3484644E2,1.1825111E2,5.8948364E2,1.2105797E2,3.950274E2,9.944638E2,6.7485077E2,1.2241737E2,2.126094E2,6.196663E2,1.08206E2,1.1939038E2,6.879303E1,2.9602434E1,4.954418E1,3.3756661E0,3.7181738E2,6.847157E2,5.4802995E0,1.1673424E1,3.7898724E1,9.671857E0,1.23079025E2,1.883211E2,4.2301407E2,8.266427E1,4.1168365E0,2.1725239E1],"tree_param":{"num_deleted":"0","num_feature":"47","num_nodes":"127","size_leaf_vector":"1"}},{"base_weights":[-7.915934E-3,2.7231017E-1,-3.0449316E-1,1.375855E-1,7.355008E-1,-6.917404E-2,-4.4150713E-1,4.4148144E-1,-1.0300015E-2,1.206125E0,6.129068E-1,5.4948404E-2,-4.0560883E-1,-3.6099935E-1,-5.93626E-1,8.654974E-1,3.6047432E-1,-2.9511324E-1,9.061832E-2,1.016375E0,1.6447035E0,1.0941665E0,5.357927E-1,1.39129E-1,-2.4437702E-1,-3.4118164E-1,-7.56233E-1,-4.8332843E-1,-2.30552E-1,-7.065293E-1,-5.076253E-1,1.4099892E0,7.30406E-1,3.3693053E-2,4.6123314E-1,-1.598791E-1,-4.1501376E-1,3.918054E-1,4.517352E-3,1.8471061E0,9.2489487E-1,1.9635817E0,1.1222768E0,1.55362E0,4.2744803E-1,3.832693E-1,8.6427075E-1,3.98301E-1,4.5231722E-2,4.1131368E-1,-2.939389E-1,-4.1622984E-1,6.6572395E-3,-7.998776E-1,3.0413508E-2,-5.732855E-1,-3.290735E-1,5.6251127E-2,-3.1468275E-1,-7.1358675E-1,1.1546906E-1,-4.3231288E-1,-6.378265E-1,2.3715003E-1,1.06442414E-1,2.2426544E-2,8.893061E-2,-4.8395474E-2,1.0734271E-2,5.5546086E-2,2.0648323E-2,2.8730931E-3,-2.588411E-2,-5.7183243E-2,-3.0516757E-2,2.5430301E-2,6.813655E-2,1.0349254E-2,-1.7122397E-2,-2.4144823E-2,2.1194549E-1,8.178999E-2,1.5420257E-1,-2.8423611E-2,2.0259301E-1,1.6050532E-1,4.9192682E-2,1.6927448E-1,6.0075637E-2,2.8741045E-2,1.9025998E-1,4.8115924E-2,7.7878903E-3,7.960524E-2,1.8937579E-1,1.8791003E-2,8.387761E-2,3.9638396E-2,-2.9010463E-3,1.9882785E-1,-7.129665E-3,-3.0643845E-2,1.412781E-1,-5.3917556E-3,-4.809443E-2,1.2053907E-1,-6.5692165E-3,-9.570622E-2,-6.4747006E-2,-5.0070353E-2,1.2578428E-1,-5.9364922E-2,-2.4101442E-2,-2.0848777E-2,-5.035482E-2,2.7303586E-2,-1.0424509E-2,-4.4583343E-2,-1.3599455E-2,-7.4238546E-2,-2.0652678E-2,-4.9880352E-2,-1.623941E-2,-6.5285064E-2,5.0561618E-2],"categories":[],"categories_nodes":[],"categories_segments":[],"categories_sizes":[],"default_left":[0,0,0,0,0,0,0,0,0,0,0,0,0,0,0,0,0,0,0,0,0,0,0,0,0,0,0,0,0,0,0,0,0,0,0,0,0,0,0,0,0,0,0,0,0,0,0,0,0,0,0,0,0,0,0,0,0,0,0,0,0,0,0,0,0,0,0,0,0,0,0,0,0,0,0,0,0,0,0,0,0,0,0,0,0,0,0,0,0,0,0,0,0,0,0,0,0,0,0,0,0,0,0,0,0,0,0,0,0,0,0,0,0,0,0,0,0,0,0,0,0,0,0,0,0],"id":2,"left_children":[1,3,5,7,9,11,13,15,17,19,21,23,25,27,29,31,33,35,37,39,41,43,45,47,49,51,53,55,57,59,61,63,65,67,69,71,73,75,77,79,81,83,85,87,89,91,93,95,97,99,101,103,105,107,109,111,113,115,117,119,-1,121,123,-1,-1,-1,-1,-1,-1,-1,-1,-1,-1,-1,-1,-1,-1,-1,-1,-1,-1,-1,-1,-1,-1,-1,-1,-1,-1,-1,-1,-1,-1,-1,-1,-1,-1,-1,-1,-1,-1,-1,-1,-1,-1,-1,-1,-1,-1,-1,-1,-1,-1,-1,-1,-1,-1,-1,-1,-1,-1,-1,-1,-1,-1],"loss_changes":[1.1122026E3,4.2929227E2,2.0959277E2,2.396225E2,8.8701294E1,9.9980194E1,5.010614E1,5.9636383E1,1.0313984E2,2.490332E1,4.5131195E1,4.4115616E1,1.4317497E1,4.2805084E1,1.3433624E1,1.9509827E1,4.828932E1,1.5156105E1,6.8709564E1,1.5429672E1,1.3592163E1,5.1156784E1,5.2961304E1,3.3226273E1,1.261194E1,1.4279243E1,3.4347801E0,1.9057648E1,3.1468285E1,8.857849E0,7.6653748E0,1.5562134E1,1.796106E1,1.3274484E1,2.6800186E1,8.27277E0,8.386597E0,2.3279724E1,3.5876842E1,1.2665802E1,1.2284607E1,8.640701E0,1.0857513E1,1.2209564E1,1.3995515E1,2.1732117E1,2.2124954E1,3.349852E1,2.6183598E1,2.1016611E1,8.069014E0,1.0521706E1,8.581904E0,1.6357918E0,4.6618233E0,5.775635E0,1.06934395E1,1.0343867E1,2.3560959E1,8.753174E0,0E0,9.182762E0,5.3923035E0,0E0,0E0,0E0,0E0,0E0,0E0,0E0,0E0,0E0,0E0,0E0,0E0,0E0,0E0,0E0,0E0,0E0,0E0,0E0,0E0,0E0,0E0,0E0,0E0,0E0,0E0,0E0,0E0,0E0,0E0,0E0,0E0,0E0,0E0,0E0,0E0,0E0,0E0,0E0,0E0,0E0,0E0,0E0,0E0,0E0,0E0,0E0,0E0,0E0,0E0,0E0,0E0,0E0,0E0,0E0,0E0,0E0,0E0,0E0,0E0,0E0,0E0],"parents":[2147483647,0,0,1,1,2,2,3,3,4,4,5,5,6,6,7,7,8,8,9,9,10,10,11,11,12,12,13,13,14,14,15,15,16,16,17,17,18,18,19,19,20,20,21,21,22,22,23,23,24,24,25,25,26,26,27,27,28,28,29,29,30,30,31,31,32,32,33,33,34,34,35,35,36,36,37,37,38,38,39,39,40,40,41,41,42,42,43,43,44,44,45,45,46,46,47,47,48,48,49,49,50,50,51,51,52,52,53,53,54,54,55,55,56,56,57,57,58,58,59,59,61,61,62,62],"right_children":[2,4,6,8,10,12,14,16,18,20,22,24,26,28,30,32,34,36,38,40,42,44,46,48,50,52,54,56,58,60,62,64,66,68,70,72,74,76,78,80,82,84,86,88,90,92,94,96,98,100,102,104,106,108,110,112,114,116,118,120,-1,122,124,-1,-1,-1,-1,-1,-1,-1,-1,-1,-1,-1,-1,-1,-1,-1,-1,-1,-1,-1,-1,-1,-1,-1,-1,-1,-1,-1,-1,-1,-1,-1,-1,-1,-1,-1,-1,-1,-1,-1,-1,-1,-1,-1,-1,-1,-1,-1,-1,-1,-1,-1,-1,-1,-1,-1,-1,-1,-1,-1,-1,-1,-1],"split_conditions":[1E1,6.666667E-1,4.3333335E0,7E0,6E0,1.5E1,1.4E1,5E0,-1E0,2.4545455E0,1E1,8.3333336E-2,5.714286E-1,0E0,1.27E2,4E0,-1E0,6.6666665E0,-7.5E-1,4E0,1.17431E4,9.875139E0,5E-1,9.234886E0,9E0,4.090909E0,2.18E2,1.8333334E0,-7.777778E-1,6.142857E0,2.857143E-1,9.005852E0,-3E0,-7E0,8.3333336E-2,8E0,-9E-1,1E0,6E0,9.005852E0,6.37871E4,7E0,2.9E1,5E0,2.160165E4,1.0522333E1,1.17E2,1E0,-1.2857143E0,1.608478E4,1.2E2,1.8181819E-1,4.3E0,-1E0,1.509434E-1,5.3846157E-1,2.3076923E-1,5.5E0,8.5714287E-1,5E0,1.1546906E-1,1.34E2,1.2888889E1,2.3715003E-1,1.06442414E-1,2.2426544E-2,8.893061E-2,-4.8395474E-2,1.0734271E-2,5.5546086E-2,2.0648323E-2,2.8730931E-3,-2.588411E-2,-5.7183243E-2,-3.0516757E-2,2.5430301E-2,6.813655E-2,1.0349254E-2,-1.7122397E-2,-2.4144823E-2,2.1194549E-1,8.178999E-2,1.5420257E-1,-2.8423611E-2,2.0259301E-1,1.6050532E-1,4.9192682E-2,1.6927448E-1,6.0075637E-2,2.8741045E-2,1.9025998E-1,4.8115924E-2,7.7878903E-3,7.960524E-2,1.8937579E-1,1.8791003E-2,8.387761E-2,3.9638396E-2,-2.9010463E-3,1.9882785E-1,-7.129665E-3,-3.0643845E-2,1.412781E-1,-5.3917556E-3,-4.809443E-2,1.2053907E-1,-6.5692165E-3,-9.570622E-2,-6.4747006E-2,-5.0070353E-2,1.2578428E-1,-5.9364922E-2,-2.4101442E-2,-2.0848777E-2,-5.035482E-2,2.7303586E-2,-1.0424509E-2,-4.4583343E-2,-1.3599455E-2,-7.4238546E-2,-2.0652678E-2,-4.9880352E-2,-1.623941E-2,-6.5285064E-2,5.0561618E-2],"split_indices":[14,2,11,14,14,14,14,14,9,22,8,29,29,9,21,14,9,11,29,14,3,39,5,39,13,22,45,22,29,22,29,39,24,24,29,14,22,9,11,39,3,13,13,16,3,39,8,23,29,3,8,19,22,24,20,2,29,11,22,9,0,21,22,0,0,0,0,0,0,0,0,0,0,0,0,0,0,0,0,0,0,0,0,0,0,0,0,0,0,0,0,0,0,0,0,0,0,0,0,0,0,0,0,0,0,0,0,0,0,0,0,0,0,0,0,0,0,0,0,0,0,0,0,0,0],"split_type":[0,0,0,0,0,0,0,0,0,0,0,0,0,0,0,0,0,0,0,0,0,0,0,0,0,0,0,0,0,0,0,0,0,0,0,0,0,0,0,0,0,0,0,0,0,0,0,0,0,0,0,0,0,0,0,0,0,0,0,0,0,0,0,0,0,0,0,0,0,0,0,0,0,0,0,0,0,0,0,0,0,0,0,0,0,0,0,0,0,0,0,0,0,0,0,0,0,0,0,0,0,0,0,0,0,0,0,0,0,0,0,0,0,0,0,0,0,0,0,0,0,0,0,0,0],"sum_hessian":[1.3380511E4,6.8799517E3,6.500559E3,5.3307383E3,1.5492134E3,2.392679E3,4.10788E3,1.7443068E3,3.5864316E3,3.1833264E2,1.2308807E3,1.7484515E3,6.4422754E2,2.6884248E3,1.4194553E3,2.782383E2,1.4660684E3,9.37809E2,2.6486226E3,2.245144E2,9.381824E1,1.6816902E2,1.0627118E3,1.3650795E3,3.8337207E2,5.458928E2,9.833476E1,1.3859877E3,1.302437E3,6.1061475E2,8.088406E2,5.3433804E1,2.2480452E2,3.4582437E2,1.120244E3,4.4181995E2,4.9598907E2,5.880462E2,2.0605764E3,2.0367332E1,2.0414706E2,5.6545498E1,3.727274E1,9.877221E1,6.939681E1,7.272103E2,3.3550146E2,3.621749E2,1.00290454E3,2.6428677E1,3.569434E2,4.488535E2,9.703931E1,9.314982E1,5.184942E0,8.737343E2,5.122534E2,2.9547824E2,1.00695874E3,6.0892236E2,1.6923366E0,5.151705E2,2.936701E2,1.2576865E1,4.085694E1,5.428935E1,1.7051517E2,4.2380604E1,3.034438E2,8.1690436E2,3.0333966E2,1.5228746E2,2.895325E2,2.0257835E2,2.934107E2,3.9998495E2,1.8806125E2,1.3184525E3,7.421239E2,2.3626199E0,1.8004713E1,1.7596458E2,2.8182491E1,1.4300427E0,5.5115456E1,2.0231455E1,1.7041286E1,8.551059E1,1.3261626E1,6.447132E1,4.925492E0,5.502557E2,1.7695465E2,3.1631433E2,1.918715E1,2.4606815E2,1.16106766E2,1.7427518E2,8.2862933E2,5.461847E0,2.096683E1,3.5516272E2,1.7806609E0,6.830001E1,3.8055347E2,4.6320305E0,9.240728E1,4.3257164E1,4.989266E1,4.032237E0,1.1527051E0,8.225373E2,5.119702E1,3.0420288E2,2.0805052E2,1.25398865E2,1.7007938E2,5.798643E2,4.2709442E2,5.757579E2,3.3164528E1,4.1266766E2,1.02502785E2,2.9028497E2,3.3851218E0],"tree_param":{"num_deleted":"0","num_feature":"47","num_nodes":"125","size_leaf_vector":"1"}},{"base_weights":[2.3928701E-3,3.1670272E-1,-2.226466E-1,5.3898007E-1,9.348572E-2,1.4130619E-2,-3.6781424E-1,7.3348886E-1,3.686207E-1,4.8181927E-1,-7.555332E-4,1.3037252E-1,-2.8380924E-1,-2.715074E-1,-5.286E-1,5.9968024E-1,9.5337147E-1,2.6339412E-1,6.3325095E-1,7.759752E-1,3.3027998E-1,-1.4491428E-1,1.4321378E-1,5.6509924E-1,7.426035E-2,-3.9749444E-1,4.386907E-2,-1.5417743E-1,-3.827563E-1,-4.5836937E-1,-6.6326785E-1,1.1978455E0,5.134019E-1,1.3791953E0,7.478692E-1,6.434205E-1,1.8961371E-1,9.419991E-2,7.201339E-1,1.333364E0,5.970203E-1,4.917682E-1,-1.8708847E-2,-2.1244738E-1,2.4797593E-1,-2.502178E-1,2.2956708E-1,8.3308995E-1,8.235701E-2,3.4936476E-1,-8.217505E-3,-3.366956E-1,-6.9196254E-1,1.2497298E0,-5.1067993E-5,-2.8110248E-1,-4.3227483E-2,-1.9303465E-1,-4.692841E-1,-2.8075218E-1,-5.232398E-1,-7.58133E-1,-5.745242E-1,2.1285804E-1,1.0186213E-1,4.084238E-2,8.2822956E-2,1.6906731E-1,1.1032196E-1,6.661197E-2,1.6028504E-1,4.789379E-2,1.2640525E-1,1.0744247E-2,3.8098346E-2,-2.5264988E-2,8.033344E-2,7.465246E-2,-6.151233E-2,1.446145E-1,-1.3994077E-2,1.1345636E-1,4.4797163E-2,9.9380985E-2,3.989436E-2,-1.7992025E-2,6.304498E-2,-6.7875087E-3,-4.3694586E-2,7.269261E-2,1.9270178E-3,7.3545724E-3,-5.0769765E-2,3.1257045E-2,-9.942978E-3,1.02367274E-1,1.9451886E-2,-3.2603133E-3,7.671505E-2,2.0013547E-2,6.6217385E-2,-1.7743747E-3,1.5338422E-1,1.0522925E-1,-3.5124846E-2,-8.073311E-2,-2.5775194E-2,1.7306437E-1,1.0571169E-2,2.395811E-2,-1.4771796E-2,-3.0093431E-2,4.5239594E-2,-1.1317241E-2,3.1574477E-2,-5.0686654E-2,-1.1316544E-2,-4.2709872E-2,-7.277841E-2,-4.6779763E-2,-5.876331E-3,-4.47992E-2,-6.8050325E-2,-7.740196E-2,3.3898022E-2,-3.1051546E-2,-6.53976E-2],"categories":[],"categories_nodes":[],"categories_segments":[],"categories_sizes":[],"default_left":[0,0,0,0,0,0,0,0,0,0,0,0,0,0,0,0,0,0,0,0,0,0,0,0,0,0,0,0,0,0,0,0,0,0,0,0,0,0,0,0,0,0,0,0,0,0,0,0,0,0,0,0,0,0,0,0,0,0,0,0,0,0,0,0,0,0,0,0,0,0,0,0,0,0,0,0,0,0,0,0,0,0,0,0,0,0,0,0,0,0,0,0,0,0,0,0,0,0,0,0,0,0,0,0,0,0,0,0,0,0,0,0,0,0,0,0,0,0,0,0,0,0,0,0,0,0,0],"id":3,"left_children":[1,3,5,7,9,11,13,15,17,19,21,23,25,27,29,31,33,35,37,39,41,43,45,47,49,51,53,55,57,59,61,63,65,67,69,71,73,75,77,79,81,83,85,87,89,91,93,95,97,99,101,103,105,107,109,111,113,115,117,119,121,123,125,-1,-1,-1,-1,-1,-1,-1,-1,-1,-1,-1,-1,-1,-1,-1,-1,-1,-1,-1,-1,-1,-1,-1,-1,-1,-1,-1,-1,-1,-1,-1,-1,-1,-1,-1,-1,-1,-1,-1,-1,-1,-1,-1,-1,-1,-1,-1,-1,-1,-1,-1,-1,-1,-1,-1,-1,-1,-1,-1,-1,-1,-1,-1,-1],"loss_changes":[9.432277E2,2.760141E2,2.6711996E2,9.210278E1,1.016431E2,1.0236398E2,7.445587E1,3.769391E1,4.1270905E1,2.392118E1,4.6426903E1,5.182012E1,3.0919472E1,3.9295044E1,1.6754242E1,4.1251648E1,4.187677E1,2.9779266E1,1.9727203E1,1.7524925E1,2.0281696E1,2.9709867E1,3.8081932E1,3.1355225E1,4.2754646E1,1.0794846E1,1.1364044E1,2.0675648E1,2.5303986E1,1.3548843E1,4.750061E0,1.4764786E1,2.3151093E1,1.1752991E1,2.2200974E1,1.7051361E1,1.4024704E1,1.4915991E1,1.3280441E1,7.4848175E0,1.0776333E1,1.1065453E1,1.2122993E1,3.0944508E1,1.7994987E1,1.6869858E1,2.5107872E1,1.8795982E1,6.9383554E0,2.0155376E1,2.1335884E1,1.072913E1,5.025055E0,3.9656563E0,7.3966765E0,1.0100864E1,1.974678E1,1.2130268E1,1.1266815E1,1.3265602E1,9.984604E0,5.39682E0,6.559189E0,0E0,0E0,0E0,0E0,0E0,0E0,0E0,0E0,0E0,0E0,0E0,0E0,0E0,0E0,0E0,0E0,0E0,0E0,0E0,0E0,0E0,0E0,0E0,0E0,0E0,0E0,0E0,0E0,0E0,0E0,0E0,0E0,0E0,0E0,0E0,0E0,0E0,0E0,0E0,0E0,0E0,0E0,0E0,0E0,0E0,0E0,0E0,0E0,0E0,0E0,0E0,0E0,0E0,0E0,0E0,0E0,0E0,0E0,0E0,0E0,0E0,0E0,0E0,0E0],"parents":[2147483647,0,0,1,1,2,2,3,3,4,4,5,5,6,6,7,7,8,8,9,9,10,10,11,11,12,12,13,13,14,14,15,15,16,16,17,17,18,18,19,19,20,20,21,21,22,22,23,23,24,24,25,25,26,26,27,27,28,28,29,29,30,30,31,31,32,32,33,33,34,34,35,35,36,36,37,37,38,38,39,39,40,40,41,41,42,42,43,43,44,44,45,45,46,46,47,47,48,48,49,49,50,50,51,51,52,52,53,53,54,54,55,55,56,56,57,57,58,58,59,59,60,60,61,61,62,62],"right_children":[2,4,6,8,10,12,14,16,18,20,22,24,26,28,30,32,34,36,38,40,42,44,46,48,50,52,54,56,58,60,62,64,66,68,70,72,74,76,78,80,82,84,86,88,90,92,94,96,98,100,102,104,106,108,110,112,114,116,118,120,122,124,126,-1,-1,-1,-1,-1,-1,-1,-1,-1,-1,-1,-1,-1,-1,-1,-1,-1,-1,-1,-1,-1,-1,-1,-1,-1,-1,-1,-1,-1,-1,-1,-1,-1,-1,-1,-1,-1,-1,-1,-1,-1,-1,-1,-1,-1,-1,-1,-1,-1,-1,-1,-1,-1,-1,-1,-1,-1,-1,-1,-1,-1,-1,-1,-1],"split_conditions":[9E0,4.6666665E0,4.3333335E0,7E0,6E0,1.4E1,1.3E1,1E0,8E-1,5E0,0E0,6E1,8.333333E-1,1.3166667E0,1.7E1,-1.1818181E0,9.290212E0,-1.125E0,-1E0,-3E-1,2.3333333E0,1.828E3,6.8E1,9.4272E0,-9.285714E-1,2.1E1,8.97089E0,5.15E2,-5.4545456E-1,-7.777778E-1,1E0,2E0,8.5714287E-1,7.6333336E1,1.13E2,3.5714287E-1,1E0,8.7E1,1.6363636E0,1.05E1,4E0,-9.285714E-1,8.5E1,2.0166667E0,-5.555556E-1,1.3666667E0,6E-1,2.2666667E0,2.778E3,7E-1,1.2E2,1.3333334E0,1.01E2,5.3E1,1.6E1,3.4210527E-1,1E0,-2E0,9.666667E0,0E0,1.9333333E0,1.1E2,6E0,2.1285804E-1,1.0186213E-1,4.084238E-2,8.2822956E-2,1.6906731E-1,1.1032196E-1,6.661197E-2,1.6028504E-1,4.789379E-2,1.2640525E-1,1.0744247E-2,3.8098346E-2,-2.5264988E-2,8.033344E-2,7.465246E-2,-6.151233E-2,1.446145E-1,-1.3994077E-2,1.1345636E-1,4.4797163E-2,9.9380985E-2,3.989436E-2,-1.7992025E-2,6.304498E-2,-6.7875087E-3,-4.3694586E-2,7.269261E-2,1.9270178E-3,7.3545724E-3,-5.0769765E-2,3.1257045E-2,-9.942978E-3,1.02367274E-1,1.9451886E-2,-3.2603133E-3,7.671505E-2,2.0013547E-2,6.6217385E-2,-1.7743747E-3,1.5338422E-1,1.0522925E-1,-3.5124846E-2,-8.073311E-2,-2.5775194E-2,1.7306437E-1,1.0571169E-2,2.395811E-2,-1.4771796E-2,-3.0093431E-2,4.5239594E-2,-1.1317241E-2,3.1574477E-2,-5.0686654E-2,-1.1316544E-2,-4.2709872E-2,-7.277841E-2,-4.6779763E-2,-5.876331E-3,-4.47992E-2,-6.8050325E-2,-7.740196E-2,3.3898022E-2,-3.1051546E-2,-6.53976E-2],"split_indices":[14,11,11,14,14,14,14,23,2,14,9,8,2,30,14,29,39,29,7,29,30,44,8,39,29,14,39,44,29,29,31,11,2,10,8,5,23,8,29,11,14,29,45,30,29,30,29,30,44,2,8,11,8,45,14,1,9,9,11,9,30,10,18,0,0,0,0,0,0,0,0,0,0,0,0,0,0,0,0,0,0,0,0,0,0,0,0,0,0,0,0,0,0,0,0,0,0,0,0,0,0,0,0,0,0,0,0,0,0,0,0,0,0,0,0,0,0,0,0,0,0,0,0,0,0,0,0],"split_type":[0,0,0,0,0,0,0,0,0,0,0,0,0,0,0,0,0,0,0,0,0,0,0,0,0,0,0,0,0,0,0,0,0,0,0,0,0,0,0,0,0,0,0,0,0,0,0,0,0,0,0,0,0,0,0,0,0,0,0,0,0,0,0,0,0,0,0,0,0,0,0,0,0,0,0,0,0,0,0,0,0,0,0,0,0,0,0,0,0,0,0,0,0,0,0,0,0,0,0,0,0,0,0,0,0,0,0,0,0,0,0,0,0,0,0,0,0,0,0,0,0,0,0,0,0,0,0],"sum_hessian":[1.3333214E4,5.563013E3,7.7702E3,2.786665E3,2.7763484E3,2.953601E3,4.816599E3,1.299569E3,1.4870961E3,5.4138544E2,2.234963E3,2.1250647E3,8.285364E2,3.0139834E3,1.8026156E3,8.1023267E2,4.893363E2,1.0654357E3,4.2166043E2,1.8267355E2,3.5871188E2,1.1167434E3,1.1182194E3,2.4189813E2,1.8831665E3,6.1496606E2,2.1357031E2,1.468061E3,1.5459225E3,1.1876488E3,6.1496686E2,1.0051074E2,7.097219E2,1.5742424E2,3.3191208E2,1.7196446E2,8.934712E2,5.881802E1,3.628424E2,4.2827713E1,1.3984584E2,2.449545E2,1.1375738E2,9.533358E2,1.6340767E2,2.0091936E2,9.1730005E2,1.5508058E2,8.681754E1,4.3361392E2,1.4495526E3,5.1150006E2,1.0346599E2,6.5405293E0,2.0702979E2,6.8401953E2,7.8404144E2,4.8523117E2,1.0606914E3,3.1914578E2,8.68503E2,2.9358603E2,3.2138083E2,1.4473142E1,8.6037605E1,5.339692E2,1.7575275E2,7.1547066E1,8.587718E1,3.0456958E2,2.7342499E1,1.3733818E2,3.4626278E1,6.261663E2,2.6730487E2,3.9930874E1,1.888715E1,3.5624237E2,6.6000476E0,3.979951E1,3.0282028E0,2.8923037E1,1.10922806E2,3.6708797E1,2.082457E2,9.170603E1,2.2051346E1,5.8068756E2,3.7264822E2,5.210732E1,1.1130035E2,8.931993E1,1.1159942E2,7.325367E2,1.8476337E2,1.1897053E2,3.611006E1,7.5153496E1,1.1664051E1,2.9467535E2,1.3893857E2,1.4416353E3,7.9173656E0,4.5641866E0,5.0693588E2,8.106731E1,2.2398676E1,4.2437825E0,2.2967467E0,7.869766E1,1.2833212E2,6.6658655E2,1.7432991E1,6.567583E2,1.2728315E2,9.735312E1,3.8787805E2,9.1415936E2,1.4653201E2,1.7260413E2,1.4654166E2,5.900318E2,2.7847122E2,2.896858E2,3.9002497E0,7.547951E1,2.459013E2],"tree_param":{"num_deleted":"0","num_feature":"47","num_nodes":"127","size_leaf_vector":"1"}},{"base_weights":[4.584581E-3,2.2975141E-1,-2.5327712E-1,5.722075E-2,4.4236076E-1,-3.417736E-1,4.7674634E-2,2.949258E-1,-5.7034355E-2,6.367201E-1,3.1698602E-1,-2.6676944E-1,-5.06223E-1,2.421575E-1,-1.333577E-1,9.300477E-2,4.4211537E-1,1.2113383E-1,-1.6891636E-1,4.875519E-1,8.0004704E-1,-2.5480311E-2,4.050187E-1,-3.547265E-1,-1.01442315E-1,-6.1532307E-1,-3.791382E-1,7.060108E-1,1.5093482E-1,-1.6228446E-1,1.1177408E0,-1.2017468E-1,2.2995019E-1,6.635773E-1,2.4371453E-1,-3.2053676E-1,1.9286816E-1,-1.0364902E-1,-4.8091063E-1,4.5476374E-1,1.8602709E0,1.2221843E0,6.94551E-1,-5.294386E-2,1.4716133E0,4.8722783E-1,1.012033E-1,-2.6853338E-1,-5.3328466E-1,3.574513E-2,-2.1768913E-1,-7.049353E-1,-5.126914E-1,-2.6902753E-1,-6.524546E-1,-3.6113608E-1,8.189394E-1,5.4578073E-2,4.7914448E-1,-6.1163638E-2,-3.9216268E-1,-2.118942E-1,1.3476003E0,2.572972E-2,-2.4136236E-2,2.803509E-2,-5.7603877E-2,3.5036534E-2,8.072776E-2,3.5088122E-2,-9.798436E-3,-4.3207567E-2,1.8309982E-2,2.6275923E-2,-1.2593517E-2,-3.681797E-2,-5.1392284E-3,-6.861108E-2,-3.4760613E-2,6.7904964E-2,3.4508374E-2,2.6941666E-1,9.111678E-2,1.5763234E-1,8.7986216E-2,1.3788496E-1,6.3437186E-2,1.6822718E-2,-1.7356766E-2,-1.975177E-2,1.8465164E-1,9.612454E-2,4.1942175E-2,-6.8108615E-4,8.867773E-2,-3.334643E-2,3.4558324E-3,-5.7046007E-2,-6.622323E-3,2.361648E-2,-1.5882423E-2,-7.948386E-3,-3.3435207E-2,-7.364606E-2,-4.566049E-2,-2.28469E-2,-5.5411916E-2,2.1754277E-3,-3.2884777E-2,-6.7623354E-2,7.335271E-2,-7.6476656E-2,4.446865E-2,9.936946E-2,2.2940611E-2,-7.311883E-3,2.84531E-2,8.735082E-2,1.9384386E-2,-1.2086633E-2,9.9158E-2,-5.8730017E-2,-1.5093996E-2,4.2017248E-2,-6.6591434E-2,1.6618997E-1,2.456139E-2],"categories":[],"categories_nodes":[],"categories_segments":[],"categories_sizes":[],"default_left":[0,0,0,0,0,0,0,0,0,0,0,0,0,0,0,0,0,0,0,0,0,0,0,0,0,0,0,0,0,0,0,0,0,0,0,0,0,0,0,0,0,0,0,0,0,0,0,0,0,0,0,0,0,0,0,0,0,0,0,0,0,0,0,0,0,0,0,0,0,0,0,0,0,0,0,0,0,0,0,0,0,0,0,0,0,0,0,0,0,0,0,0,0,0,0,0,0,0,0,0,0,0,0,0,0,0,0,0,0,0,0,0,0,0,0,0,0,0,0,0,0,0,0,0,0,0,0],"id":4,"left_children":[1,3,5,7,9,11,13,15,17,19,21,23,25,27,29,31,33,35,37,39,41,43,45,47,49,51,53,55,57,59,61,63,65,67,69,71,73,75,77,79,81,83,85,87,89,91,93,95,97,99,101,103,105,107,109,111,113,115,117,119,121,123,125,-1,-1,-1,-1,-1,-1,-1,-1,-1,-1,-1,-1,-1,-1,-1,-1,-1,-1,-1,-1,-1,-1,-1,-1,-1,-1,-1,-1,-1,-1,-1,-1,-1,-1,-1,-1,-1,-1,-1,-1,-1,-1,-1,-1,-1,-1,-1,-1,-1,-1,-1,-1,-1,-1,-1,-1,-1,-1,-1,-1,-1,-1,-1,-1],"loss_changes":[7.7541504E2,2.6149478E2,1.658215E2,1.06937294E2,7.761951E1,5.9205383E1,4.987003E1,3.794654E1,5.3037926E1,3.0095612E1,5.8598145E1,4.804097E1,2.064502E1,2.8784195E1,2.6736485E1,1.5796852E1,3.230876E1,3.2584602E1,3.322676E1,2.8704926E1,2.5681763E1,1.6455498E1,3.856407E1,3.3063812E1,1.8339771E1,7.0757446E0,2.0836502E1,1.3785385E1,1.8058254E1,1.666755E1,5.3922577E0,9.756767E0,1.3535406E1,1.5408325E1,1.4366108E1,8.157202E0,1.9723389E1,1.8680508E1,7.4874268E0,1.557254E1,9.41127E0,1.28936E1,1.884845E1,1.0490392E1,4.8766613E0,3.869644E1,2.805021E1,2.8689285E1,1.2141312E1,2.0632029E1,1.0008472E1,3.0225067E0,4.3549347E0,8.693825E0,7.080887E0,4.0498905E0,1.023214E1,1.3034571E1,1.4418026E1,3.1537664E1,1.0228622E1,1.2345228E0,4.573042E0,0E0,0E0,0E0,0E0,0E0,0E0,0E0,0E0,0E0,0E0,0E0,0E0,0E0,0E0,0E0,0E0,0E0,0E0,0E0,0E0,0E0,0E0,0E0,0E0,0E0,0E0,0E0,0E0,0E0,0E0,0E0,0E0,0E0,0E0,0E0,0E0,0E0,0E0,0E0,0E0,0E0,0E0,0E0,0E0,0E0,0E0,0E0,0E0,0E0,0E0,0E0,0E0,0E0,0E0,0E0,0E0,0E0,0E0,0E0,0E0,0E0,0E0,0E0,0E0],"parents":[2147483647,0,0,1,1,2,2,3,3,4,4,5,5,6,6,7,7,8,8,9,9,10,10,11,11,12,12,13,13,14,14,15,15,16,16,17,17,18,18,19,19,20,20,21,21,22,22,23,23,24,24,25,25,26,26,27,27,28,28,29,29,30,30,31,31,32,32,33,33,34,34,35,35,36,36,37,37,38,38,39,39,40,40,41,41,42,42,43,43,44,44,45,45,46,46,47,47,48,48,49,49,50,50,51,51,52,52,53,53,54,54,55,55,56,56,57,57,58,58,59,59,60,60,61,61,62,62],"right_children":[2,4,6,8,10,12,14,16,18,20,22,24,26,28,30,32,34,36,38,40,42,44,46,48,50,52,54,56,58,60,62,64,66,68,70,72,74,76,78,80,82,84,86,88,90,92,94,96,98,100,102,104,106,108,110,112,114,116,118,120,122,124,126,-1,-1,-1,-1,-1,-1,-1,-1,-1,-1,-1,-1,-1,-1,-1,-1,-1,-1,-1,-1,-1,-1,-1,-1,-1,-1,-1,-1,-1,-1,-1,-1,-1,-1,-1,-1,-1,-1,-1,-1,-1,-1,-1,-1,-1,-1,-1,-1,-1,-1,-1,-1,-1,-1,-1,-1,-1,-1,-1,-1,-1,-1,-1,-1],"split_conditions":[1E1,5E-1,6E-1,7E0,7E0,2.5E-1,1.0417711E1,0E0,-1.1111111E-1,8.333333E-1,0E0,1.5E0,0E0,1E1,1.19E2,-1.125E0,4.5E1,-2E0,3.25E0,1.16E2,5E0,1.16333336E2,1.0762543E1,1.4E1,1.0166667E0,9.285714E-1,1.5E1,3E0,3.75E-1,1.1678822E1,1.9E1,-7.2727275E-1,7E1,-2.2222223E0,2.857143E-1,3.4E0,8E0,0E0,-1E0,-3.75E-1,1.464E3,4E0,1E1,5E0,1.1139831E1,6.2E1,1.15E2,1E0,5E0,9.575261E0,7E0,4E1,4E1,1.1E1,1.175E1,5.555556E-1,2.2666667E0,2.5E0,6E0,1.09E2,8.333333E-1,1.3127203E1,2.18E2,2.572972E-2,-2.4136236E-2,2.803509E-2,-5.7603877E-2,3.5036534E-2,8.072776E-2,3.5088122E-2,-9.798436E-3,-4.3207567E-2,1.8309982E-2,2.6275923E-2,-1.2593517E-2,-3.681797E-2,-5.1392284E-3,-6.861108E-2,-3.4760613E-2,6.7904964E-2,3.4508374E-2,2.6941666E-1,9.111678E-2,1.5763234E-1,8.7986216E-2,1.3788496E-1,6.3437186E-2,1.6822718E-2,-1.7356766E-2,-1.975177E-2,1.8465164E-1,9.612454E-2,4.1942175E-2,-6.8108615E-4,8.867773E-2,-3.334643E-2,3.4558324E-3,-5.7046007E-2,-6.622323E-3,2.361648E-2,-1.5882423E-2,-7.948386E-3,-3.3435207E-2,-7.364606E-2,-4.566049E-2,-2.28469E-2,-5.5411916E-2,2.1754277E-3,-3.2884777E-2,-6.7623354E-2,7.335271E-2,-7.6476656E-2,4.446865E-2,9.936946E-2,2.2940611E-2,-7.311883E-3,2.84531E-2,8.735082E-2,1.9384386E-2,-1.2086633E-2,9.9158E-2,-5.8730017E-2,-1.5093996E-2,4.2017248E-2,-6.6591434E-2,1.6618997E-1,2.456139E-2],"split_indices":[14,2,2,14,14,29,39,9,29,22,9,22,9,8,8,22,17,9,30,8,14,10,39,14,30,22,14,46,1,39,45,29,17,22,29,22,18,7,9,29,44,0,8,0,39,8,8,9,9,39,18,0,17,13,22,22,30,22,18,8,2,39,45,0,0,0,0,0,0,0,0,0,0,0,0,0,0,0,0,0,0,0,0,0,0,0,0,0,0,0,0,0,0,0,0,0,0,0,0,0,0,0,0,0,0,0,0,0,0,0,0,0,0,0,0,0,0,0,0,0,0,0,0,0,0,0,0],"split_type":[0,0,0,0,0,0,0,0,0,0,0,0,0,0,0,0,0,0,0,0,0,0,0,0,0,0,0,0,0,0,0,0,0,0,0,0,0,0,0,0,0,0,0,0,0,0,0,0,0,0,0,0,0,0,0,0,0,0,0,0,0,0,0,0,0,0,0,0,0,0,0,0,0,0,0,0,0,0,0,0,0,0,0,0,0,0,0,0,0,0,0,0,0,0,0,0,0,0,0,0,0,0,0,0,0,0,0,0,0,0,0,0,0,0,0,0,0,0,0,0,0,0,0,0,0,0,0],"sum_hessian":[1.335297E4,7.1284556E3,6.2245137E3,3.9358315E3,3.1926243E3,4.809978E3,1.4145356E3,1.2771564E3,2.658675E3,1.2502988E3,1.9423256E3,3.305147E3,1.5048312E3,6.8177155E2,7.3276416E2,5.391537E2,7.380027E2,1.0255076E3,1.6331676E3,6.5555695E2,5.947418E2,3.9733115E2,1.5449944E3,2.156633E3,1.148514E3,8.0764246E2,6.971887E2,1.109366E2,5.708349E2,7.170553E2,1.57088175E1,2.1092874E2,3.2822495E2,3.476259E2,3.903768E2,1.4280208E2,8.8270544E2,1.3517267E3,2.8144095E2,6.415641E2,1.3992819E1,1.16797455E2,4.779444E2,3.9112085E2,6.210311E0,1.2154918E3,3.2950256E2,1.4562028E3,7.0043024E2,5.2712524E2,6.213888E2,4.280365E2,3.7960593E2,4.9838803E2,1.9880066E2,1.0405867E1,1.0053073E2,4.4218365E2,1.2865126E2,4.9887286E2,2.1818246E2,2.3269005E0,1.3381917E1,5.09884E1,1.5994034E2,3.0952185E2,1.8703089E1,1.1041071E2,2.3721518E2,2.9715384E2,9.322295E1,1.17026634E2,2.5775446E1,7.241305E2,1.5857495E2,2.2198137E2,1.1297452E3,1.0919948E2,1.7224146E2,2.0899559E2,4.325685E2,6.4697547E0,7.523064E0,5.5636066E1,6.1161385E1,3.6862885E1,4.410815E2,1.378923E2,2.5322853E2,1.2258356E0,4.984475E0,1.5046281E2,1.065029E3,2.9054483E2,3.895775E1,1.1991997E3,2.570031E2,6.485852E2,5.1845028E1,2.595536E2,2.6757166E2,2.852031E2,3.361857E2,3.780747E2,4.9961807E1,4.9120613E1,3.3048532E2,8.514426E1,4.1324377E2,1.9595088E2,2.8497832E0,6.9670653E0,3.4388008E0,7.7015495E1,2.351524E1,2.8474292E2,1.5744073E2,5.313811E1,7.551315E1,4.7293707E2,2.593579E1,1.1981957E2,9.83629E1,1.0038861E0,1.3230145E0,1.001689E1,3.365028E0],"tree_param":{"num_deleted":"0","num_feature":"47","num_nodes":"127","size_leaf_vector":"1"}},{"base_weights":[-7.28351E-3,1.9234174E-1,-2.4364577E-1,3.830276E-1,3.727382E-2,2.5425123E-2,-3.4539258E-1,6.4886487E-1,3.1436694E-1,2.522627E-1,-7.167552E-2,1.1145659E-1,-2.9849315E-1,-2.888028E-1,-5.874568E-1,6.947659E-1,6.7991346E-2,4.51604E-1,1.9509248E-1,7.92271E-3,3.4839967E-1,-1.1110202E-1,3.067168E-1,4.6937287E-1,6.0945977E-2,-4.274153E-1,-8.745187E-2,-1.6661182E-1,-4.01001E-1,-7.576446E-1,-5.0316644E-1,5.6778085E-1,9.186502E-1,-2.823452E-1,6.230514E-1,1.4718069E-1,5.2276915E-1,1.3758254E-1,6.0506576E-1,-2.0577474E-1,2.8597173E-1,4.153552E-1,-2.7801465E-2,-4.030988E-1,-6.077411E-2,1.7521483E-1,1.1872727E0,7.3386997E-1,-3.0132968E-4,-4.583524E-1,8.235126E-2,-4.4408926E-1,9.3062066E-2,-3.5133505E-1,1.8472439E-1,-3.0505508E-1,-8.519855E-2,-3.0498338E-1,-5.658502E-1,-6.2970024E-1,-8.9492327E-1,-4.3197966E-1,-7.109899E-1,7.311519E-2,4.041273E-2,5.432732E-3,1.03576235E-1,6.926869E-3,-7.38005E-2,-8.344206E-4,1.4036836E-1,-1.8167973E-3,8.1166014E-2,4.4229593E-2,7.0788465E-2,1.9810973E-2,-2.5917513E-2,7.9302214E-2,-1.5398235E-3,6.690364E-2,-2.362627E-2,7.505007E-3,6.609775E-2,1.145335E-1,3.8412996E-2,-6.662496E-2,1.2864465E-2,-3.0517876E-2,-7.13881E-2,1.6511556E-3,-1.9895038E-2,4.196902E-2,-9.031014E-3,1.5653154E-1,-5.684772E-3,9.411047E-2,-1.71768E-3,-7.3936875E-3,1.7288487E-1,-6.671732E-2,-5.6498763E-3,1.4287675E-2,-1.3123016E-2,-5.583365E-2,-2.7299264E-2,1.7342277E-2,-4.6082523E-2,3.3558633E-2,-6.370302E-2,-4.502692E-2,-2.0241128E-2,-7.976352E-2,-6.1453907E-3,-3.88901E-2,-1.5269943E-2,-6.099385E-2,-2.8400531E-2,-8.576586E-2,-4.4884283E-2,-9.008923E-2,-1.2180214E-2,6.180494E-2,-4.5167234E-2,-7.3359735E-2,5.2162867E-2],"categories":[],"categories_nodes":[],"categories_segments":[],"categories_sizes":[],"default_left":[0,0,0,0,0,0,0,0,0,0,0,0,0,0,0,0,0,0,0,0,0,0,0,0,0,0,0,0,0,0,0,0,0,0,0,0,0,0,0,0,0,0,0,0,0,0,0,0,0,0,0,0,0,0,0,0,0,0,0,0,0,0,0,0,0,0,0,0,0,0,0,0,0,0,0,0,0,0,0,0,0,0,0,0,0,0,0,0,0,0,0,0,0,0,0,0,0,0,0,0,0,0,0,0,0,0,0,0,0,0,0,0,0,0,0,0,0,0,0,0,0,0,0,0,0],"id":5,"left_children":[1,3,5,7,9,11,13,15,17,19,21,23,25,27,29,31,33,35,37,39,41,43,45,47,49,51,53,55,57,59,61,63,65,67,69,71,73,75,77,79,81,83,85,87,89,91,93,95,97,99,101,103,-1,105,107,109,111,113,115,117,119,121,123,-1,-1,-1,-1,-1,-1,-1,-1,-1,-1,-1,-1,-1,-1,-1,-1,-1,-1,-1,-1,-1,-1,-1,-1,-1,-1,-1,-1,-1,-1,-1,-1,-1,-1,-1,-1,-1,-1,-1,-1,-1,-1,-1,-1,-1,-1,-1,-1,-1,-1,-1,-1,-1,-1,-1,-1,-1,-1,-1,-1,-1,-1],"loss_changes":[6.285212E2,2.1352222E2,1.669849E2,5.891086E1,9.333159E1,4.6695072E1,6.0454834E1,1.7652863E1,4.2075775E1,3.147638E1,3.9490368E1,2.3903263E1,9.530737E0,4.9137726E1,1.1634613E1,1.6966492E1,9.84533E0,2.5854813E1,3.245089E1,2.2603018E1,2.4235275E1,3.5185013E1,2.8721249E1,2.0319221E1,1.2945406E1,5.3507423E0,9.733502E0,1.9357311E1,2.9431702E1,4.2747955E0,8.024338E0,1.0268616E1,2.231459E1,5.045452E0,9.648933E0,2.5086279E1,1.41336975E1,2.9143127E1,1.9774513E1,5.8954277E0,1.3025087E1,1.817009E1,1.469222E1,1.0496155E1,2.1840406E1,1.4224492E1,1.5275436E1,1.6302193E1,7.7579875E0,3.8326473E0,1.4446512E1,4.0713882E0,0E0,4.026829E0,8.510309E0,9.395096E0,1.8293592E1,1.5072327E1,8.366486E0,5.632477E0,4.9256897E-1,9.005623E0,4.3434525E0,0E0,0E0,0E0,0E0,0E0,0E0,0E0,0E0,0E0,0E0,0E0,0E0,0E0,0E0,0E0,0E0,0E0,0E0,0E0,0E0,0E0,0E0,0E0,0E0,0E0,0E0,0E0,0E0,0E0,0E0,0E0,0E0,0E0,0E0,0E0,0E0,0E0,0E0,0E0,0E0,0E0,0E0,0E0,0E0,0E0,0E0,0E0,0E0,0E0,0E0,0E0,0E0,0E0,0E0,0E0,0E0,0E0,0E0,0E0,0E0,0E0,0E0],"parents":[2147483647,0,0,1,1,2,2,3,3,4,4,5,5,6,6,7,7,8,8,9,9,10,10,11,11,12,12,13,13,14,14,15,15,16,16,17,17,18,18,19,19,20,20,21,21,22,22,23,23,24,24,25,25,26,26,27,27,28,28,29,29,30,30,31,31,32,32,33,33,34,34,35,35,36,36,37,37,38,38,39,39,40,40,41,41,42,42,43,43,44,44,45,45,46,46,47,47,48,48,49,49,50,50,51,51,53,53,54,54,55,55,56,56,57,57,58,58,59,59,60,60,61,61,62,62],"right_children":[2,4,6,8,10,12,14,16,18,20,22,24,26,28,30,32,34,36,38,40,42,44,46,48,50,52,54,56,58,60,62,64,66,68,70,72,74,76,78,80,82,84,86,88,90,92,94,96,98,100,102,104,-1,106,108,110,112,114,116,118,120,122,124,-1,-1,-1,-1,-1,-1,-1,-1,-1,-1,-1,-1,-1,-1,-1,-1,-1,-1,-1,-1,-1,-1,-1,-1,-1,-1,-1,-1,-1,-1,-1,-1,-1,-1,-1,-1,-1,-1,-1,-1,-1,-1,-1,-1,-1,-1,-1,-1,-1,-1,-1,-1,-1,-1,-1,-1,-1,-1,-1,-1,-1,-1],"split_conditions":[1E1,4.3333335E0,3.6666667E0,6E0,7E0,1.6E1,1.6E1,3.3333333E0,9.434567E0,-1E0,2.19E3,5.9E1,6.5E1,6E0,-4E0,9.1E1,7.5E-1,0E0,1.09E2,8.86E2,3.5E0,-2E0,9E0,9.456348E0,7.3E1,1.17E2,0E0,0E0,2E0,1.2E0,1.6E1,1.724138E-1,1.25E2,1.15384616E-1,1E0,7E0,1E0,1.10344715E1,1.2690416E1,4E0,1E0,4E0,7E1,3.8333333E0,1.7833333E0,7E0,1.8E1,2.2666667E0,1.145E3,6.41E2,1.1E1,1E0,9.3062066E-2,-9E0,1.8E1,1.28E2,1.16E2,3E0,1.634E3,3.08E2,1.5E1,1.3333334E-1,3.68058E5,7.311519E-2,4.041273E-2,5.432732E-3,1.03576235E-1,6.926869E-3,-7.38005E-2,-8.344206E-4,1.4036836E-1,-1.8167973E-3,8.1166014E-2,4.4229593E-2,7.0788465E-2,1.9810973E-2,-2.5917513E-2,7.9302214E-2,-1.5398235E-3,6.690364E-2,-2.362627E-2,7.505007E-3,6.609775E-2,1.145335E-1,3.8412996E-2,-6.662496E-2,1.2864465E-2,-3.0517876E-2,-7.13881E-2,1.6511556E-3,-1.9895038E-2,4.196902E-2,-9.031014E-3,1.5653154E-1,-5.684772E-3,9.411047E-2,-1.71768E-3,-7.3936875E-3,1.7288487E-1,-6.671732E-2,-5.6498763E-3,1.4287675E-2,-1.3123016E-2,-5.583365E-2,-2.7299264E-2,1.7342277E-2,-4.6082523E-2,3.3558633E-2,-6.370302E-2,-4.502692E-2,-2.0241128E-2,-7.976352E-2,-6.1453907E-3,-3.88901E-2,-1.5269943E-2,-6.099385E-2,-2.8400531E-2,-8.576586E-2,-4.4884283E-2,-9.008923E-2,-1.2180214E-2,6.180494E-2,-4.5167234E-2,-7.3359735E-2,5.2162867E-2],"split_indices":[14,11,11,14,14,14,14,30,39,9,44,8,46,11,24,46,2,9,8,44,30,9,24,39,8,8,24,9,30,30,18,1,21,1,23,24,23,39,39,14,7,14,8,30,30,0,0,30,46,44,0,26,0,24,18,21,21,24,44,44,11,30,3,0,0,0,0,0,0,0,0,0,0,0,0,0,0,0,0,0,0,0,0,0,0,0,0,0,0,0,0,0,0,0,0,0,0,0,0,0,0,0,0,0,0,0,0,0,0,0,0,0,0,0,0,0,0,0,0,0,0,0,0,0,0],"split_type":[0,0,0,0,0,0,0,0,0,0,0,0,0,0,0,0,0,0,0,0,0,0,0,0,0,0,0,0,0,0,0,0,0,0,0,0,0,0,0,0,0,0,0,0,0,0,0,0,0,0,0,0,0,0,0,0,0,0,0,0,0,0,0,0,0,0,0,0,0,0,0,0,0,0,0,0,0,0,0,0,0,0,0,0,0,0,0,0,0,0,0,0,0,0,0,0,0,0,0,0,0,0,0,0,0,0,0,0,0,0,0,0,0,0,0,0,0,0,0,0,0,0,0,0,0],"sum_hessian":[1.3318684E4,7.22057E3,6.0981143E3,3.237711E3,3.9828586E3,1.6734366E3,4.4246772E3,6.628537E2,2.5748572E3,1.3391025E3,2.643756E3,1.3227699E3,3.5066675E2,3.5880552E3,8.366224E2,6.141287E2,4.8725E1,1.1959789E3,1.3788783E3,3.7841418E2,9.606884E2,2.3949238E3,2.4883221E2,1.6256288E2,1.1602069E3,2.1704918E2,1.3361758E2,1.7187318E3,1.8693234E3,2.74467E2,5.6215533E2,3.9412225E2,2.2000647E2,3.017243E1,1.8552568E1,2.2719109E2,9.687878E2,1.2104194E3,1.6845876E2,2.1411433E2,1.6429985E2,8.154518E2,1.452366E2,3.510666E2,2.0438573E3,2.1754333E2,3.128888E1,1.03637115E2,5.892577E1,4.512196E1,1.115085E3,2.150814E2,1.967774E0,6.769469E1,6.592289E1,6.3543225E2,1.0832994E3,1.1830798E3,6.862435E2,1.4495514E2,1.2951186E2,4.2101993E2,1.4113542E2,1.9549602E2,1.9862624E2,2.6427496E1,1.9357898E2,1.7509247E1,1.2663183E1,1.0803626E1,7.748943E0,1.8270062E2,4.449046E1,6.77608E2,2.9117987E2,1.0506403E3,1.5977925E2,1.2907893E2,3.9379826E1,6.5054293E0,2.076089E2,1.0592343E2,5.837642E1,3.1986883E1,7.834649E2,2.7943213E1,1.1729339E2,2.684625E2,8.26041E1,1.3112954E3,7.3256195E2,1.1295879E2,1.0458454E2,2.3799047E1,7.4898314E0,8.102657E1,2.2610538E1,5.7437065E1,1.4887062E0,2.9257986E1,1.5863973E1,8.691213E2,2.4596373E2,1.2760905E2,8.747235E1,1.1585329E1,5.6109356E1,5.619749E1,9.725402E0,2.6174493E2,3.7368732E2,3.3889305E1,1.0494102E3,7.617539E2,4.2132593E2,5.9241016E2,9.3833405E1,6.2471695E1,8.248345E1,1.2835558E2,1.1562709E0,7.1912603E0,4.1382867E2,1.3899104E2,2.144385E0],"tree_param":{"num_deleted":"0","num_feature":"47","num_nodes":"125","size_leaf_vector":"1"}},{"base_weights":[-3.7868617E-3,2.877847E-1,-1.4150393E-1,5.4585624E-1,1.777473E-1,7.8683555E-2,-2.5139138E-1,4.5270437E-1,7.636617E-1,2.8306332E-1,2.574093E-2,1.9482416E-1,-1.0350467E-1,-1.7106257E-1,-4.4391754E-1,5.07169E-1,5.6572903E-2,5.657388E-1,1.0305971E0,1.4207566E-1,3.921829E-1,-2.3011969E-1,1.030326E-1,1.0295462E-1,3.797521E-1,-2.1380074E-1,5.7264518E-2,-1.1943212E-1,-4.1462788E-1,-6.1368674E-1,-3.8315356E-1,3.5844544E-1,6.56226E-1,-2.3981272E-1,5.5249596E-1,7.186618E-1,5.131998E-2,5.603894E-1,1.2349955E0,4.0618822E-2,5.00063E-1,3.0891198E-1,6.434988E-1,-3.0625513E-1,9.399159E-2,7.3432887E-1,5.2466597E-2,-3.3011767E-1,1.4886904E-1,9.6329816E-2,5.1605827E-1,-2.9054093E-1,1.6748315E-1,5.481184E-1,-1.22145815E-2,-2.3379186E-1,-2.2383118E-2,-7.194084E-1,-3.5742566E-1,-6.2235E-1,9.0992665E-1,-3.22299E-1,-5.545344E-1,3.8993668E-2,-6.747572E-2,6.969475E-2,-4.6858587E-3,2.2211985E-3,-6.755317E-2,1.9082433E-1,3.3108857E-2,-2.7514293E-3,8.256885E-2,1.771732E-1,-3.284553E-3,7.9103254E-2,-8.215208E-3,1.3951331E-1,5.5797126E-2,1.1460092E-1,1.7868053E-3,2.4863437E-2,8.758755E-2,5.391654E-2,2.0875981E-2,2.0112851E-1,6.0687166E-2,-1.6137738E-2,-5.4485768E-2,4.251743E-2,-3.673233E-2,6.3795745E-2,2.4451473E-1,-4.122914E-3,2.4390662E-2,-3.90805E-2,1.2029912E-1,6.9236934E-2,1.0824258E-2,-5.4419687E-4,9.2065975E-2,3.4317147E-2,8.457048E-2,-3.242714E-2,8.137997E-2,6.1449338E-2,-1.9710328E-2,-3.0797571E-2,7.216533E-2,-3.1202523E-2,5.1039625E-3,-2.6357887E-2,1.4211019E-2,-3.4877338E-2,2.0857304E-3,-8.086457E-2,3.6797356E-2,-5.4255594E-2,-2.6136706E-2,-6.3045755E-2,5.8378495E-2,1.925135E-1,-5.532833E-2,-2.6469642E-2,-5.963972E-2,-3.8897093E-2,-6.810554E-2],"categories":[],"categories_nodes":[],"categories_segments":[],"categories_sizes":[],"default_left":[0,0,0,0,0,0,0,0,0,0,0,0,0,0,0,0,0,0,0,0,0,0,0,0,0,0,0,0,0,0,0,0,0,0,0,0,0,0,0,0,0,0,0,0,0,0,0,0,0,0,0,0,0,0,0,0,0,0,0,0,0,0,0,0,0,0,0,0,0,0,0,0,0,0,0,0,0,0,0,0,0,0,0,0,0,0,0,0,0,0,0,0,0,0,0,0,0,0,0,0,0,0,0,0,0,0,0,0,0,0,0,0,0,0,0,0,0,0,0,0,0,0,0,0,0,0,0],"id":6,"left_children":[1,3,5,7,9,11,13,15,17,19,21,23,25,27,29,31,33,35,37,39,41,43,45,47,49,51,53,55,57,59,61,63,65,67,69,71,73,75,77,79,81,83,85,87,89,91,93,95,97,99,101,103,105,107,109,111,113,115,117,119,121,123,125,-1,-1,-1,-1,-1,-1,-1,-1,-1,-1,-1,-1,-1,-1,-1,-1,-1,-1,-1,-1,-1,-1,-1,-1,-1,-1,-1,-1,-1,-1,-1,-1,-1,-1,-1,-1,-1,-1,-1,-1,-1,-1,-1,-1,-1,-1,-1,-1,-1,-1,-1,-1,-1,-1,-1,-1,-1,-1,-1,-1,-1,-1,-1,-1],"loss_changes":[5.3427026E2,1.2111548E2,2.1867694E2,2.5532074E1,4.7922134E1,6.3695724E1,9.315958E1,1.9299042E1,1.9526459E1,2.7151825E1,2.4278E1,3.11893E1,2.0797825E1,5.3464256E1,1.8067413E1,1.7220627E1,1.6213625E1,1.7331436E1,1.4766449E1,2.8060694E1,2.0652176E1,7.057809E0,3.0051548E1,2.4495287E1,2.3504555E1,2.039713E1,1.6300014E1,3.897886E1,1.2711792E1,6.7170258E0,1.3475616E1,1.3159298E1,1.1257828E1,7.9129424E0,1.1744159E1,1.3608139E1,7.539997E0,7.558504E0,1.1286041E1,1.5156815E1,1.5906242E1,1.7189789E1,1.1155922E1,7.8938446E0,8.551324E0,9.952534E0,1.5683201E1,1.1463773E1,2.448434E1,1.671915E1,2.316037E1,2.1842304E1,1.9213966E1,9.026232E0,7.9712796E0,1.8091087E1,2.6839285E1,1.1608383E1,1.1031776E1,4.9048767E0,5.58208E0,1.5134323E1,6.8923492E0,0E0,0E0,0E0,0E0,0E0,0E0,0E0,0E0,0E0,0E0,0E0,0E0,0E0,0E0,0E0,0E0,0E0,0E0,0E0,0E0,0E0,0E0,0E0,0E0,0E0,0E0,0E0,0E0,0E0,0E0,0E0,0E0,0E0,0E0,0E0,0E0,0E0,0E0,0E0,0E0,0E0,0E0,0E0,0E0,0E0,0E0,0E0,0E0,0E0,0E0,0E0,0E0,0E0,0E0,0E0,0E0,0E0,0E0,0E0,0E0,0E0,0E0,0E0,0E0],"parents":[2147483647,0,0,1,1,2,2,3,3,4,4,5,5,6,6,7,7,8,8,9,9,10,10,11,11,12,12,13,13,14,14,15,15,16,16,17,17,18,18,19,19,20,20,21,21,22,22,23,23,24,24,25,25,26,26,27,27,28,28,29,29,30,30,31,31,32,32,33,33,34,34,35,35,36,36,37,37,38,38,39,39,40,40,41,41,42,42,43,43,44,44,45,45,46,46,47,47,48,48,49,49,50,50,51,51,52,52,53,53,54,54,55,55,56,56,57,57,58,58,59,59,60,60,61,61,62,62],"right_children":[2,4,6,8,10,12,14,16,18,20,22,24,26,28,30,32,34,36,38,40,42,44,46,48,50,52,54,56,58,60,62,64,66,68,70,72,74,76,78,80,82,84,86,88,90,92,94,96,98,100,102,104,106,108,110,112,114,116,118,120,122,124,126,-1,-1,-1,-1,-1,-1,-1,-1,-1,-1,-1,-1,-1,-1,-1,-1,-1,-1,-1,-1,-1,-1,-1,-1,-1,-1,-1,-1,-1,-1,-1,-1,-1,-1,-1,-1,-1,-1,-1,-1,-1,-1,-1,-1,-1,-1,-1,-1,-1,-1,-1,-1,-1,-1,-1,-1,-1,-1,-1,-1,-1,-1,-1,-1],"split_conditions":[8E0,3.3333333E0,4E0,1.37E2,1.65E0,1.2E1,1.3E1,6E0,1.31E2,6.06E2,7.4E1,8.1E1,3E0,3.1666667E0,-2.6923077E0,4.4444445E-1,2E0,3E0,1.021E3,1E0,1E0,3.9473686E-1,6.75E1,-1E0,5.652174E-1,3.857143E0,3E0,0E0,6.7E1,1.3E1,1.8E1,4.5833335E0,2.39E2,8.076923E-1,7.5666664E1,5.47E2,1.44E2,3.81E2,7E1,4E0,4.8387095E-1,6E0,1.1666667E-1,7E0,4E0,8E0,1.247E3,3.174E3,1E1,2.458E3,1.31E2,1.14E2,2.5E0,5E0,0E0,1.2E1,2E0,2.19E3,-2E0,1.07E2,8.794102E-2,9E0,9.166667E-1,3.8993668E-2,-6.747572E-2,6.969475E-2,-4.6858587E-3,2.2211985E-3,-6.755317E-2,1.9082433E-1,3.3108857E-2,-2.7514293E-3,8.256885E-2,1.771732E-1,-3.284553E-3,7.9103254E-2,-8.215208E-3,1.3951331E-1,5.5797126E-2,1.1460092E-1,1.7868053E-3,2.4863437E-2,8.758755E-2,5.391654E-2,2.0875981E-2,2.0112851E-1,6.0687166E-2,-1.6137738E-2,-5.4485768E-2,4.251743E-2,-3.673233E-2,6.3795745E-2,2.4451473E-1,-4.122914E-3,2.4390662E-2,-3.90805E-2,1.2029912E-1,6.9236934E-2,1.0824258E-2,-5.4419687E-4,9.2065975E-2,3.4317147E-2,8.457048E-2,-3.242714E-2,8.137997E-2,6.1449338E-2,-1.9710328E-2,-3.0797571E-2,7.216533E-2,-3.1202523E-2,5.1039625E-3,-2.6357887E-2,1.4211019E-2,-3.4877338E-2,2.0857304E-3,-8.086457E-2,3.6797356E-2,-5.4255594E-2,-2.6136706E-2,-6.3045755E-2,5.8378495E-2,1.925135E-1,-5.532833E-2,-2.6469642E-2,-5.963972E-2,-3.8897093E-2,-6.810554E-2],"split_indices":[14,11,11,46,30,14,14,25,21,44,8,46,6,30,22,22,4,11,44,9,7,20,10,7,2,22,25,9,8,4,14,30,13,19,10,44,46,46,13,14,2,14,30,11,25,22,44,44,13,44,21,10,11,46,9,24,6,44,24,8,20,11,30,0,0,0,0,0,0,0,0,0,0,0,0,0,0,0,0,0,0,0,0,0,0,0,0,0,0,0,0,0,0,0,0,0,0,0,0,0,0,0,0,0,0,0,0,0,0,0,0,0,0,0,0,0,0,0,0,0,0,0,0,0,0,0,0],"split_type":[0,0,0,0,0,0,0,0,0,0,0,0,0,0,0,0,0,0,0,0,0,0,0,0,0,0,0,0,0,0,0,0,0,0,0,0,0,0,0,0,0,0,0,0,0,0,0,0,0,0,0,0,0,0,0,0,0,0,0,0,0,0,0,0,0,0,0,0,0,0,0,0,0,0,0,0,0,0,0,0,0,0,0,0,0,0,0,0,0,0,0,0,0,0,0,0,0,0,0,0,0,0,0,0,0,0,0,0,0,0,0,0,0,0,0,0,0,0,0,0,0,0,0,0,0,0,0],"sum_hessian":[1.3303392E4,4.267418E3,9.035974E3,1.274459E3,2.9929592E3,3.0083206E3,6.027653E3,8.9483215E2,3.796268E2,1.7675018E3,1.2254573E3,1.8371271E3,1.1711936E3,4.2544375E3,1.7732151E3,7.864251E2,1.08407005E2,2.1978418E2,1.5984262E2,7.7214984E2,9.9535205E2,2.838486E2,9.416087E2,1.2284216E3,6.087054E2,6.944409E2,4.7675266E2,3.5115557E3,7.428818E2,4.649858E2,1.3082292E3,3.9535703E2,3.910681E2,6.817752E1,4.022948E1,1.6911403E2,5.0670143E1,4.956428E1,1.1027834E2,6.025073E2,1.6964252E2,7.4930634E2,2.4604568E2,2.2989919E2,5.394943E1,6.882567E1,8.72783E2,1.17159966E2,1.1112617E3,1.982304E2,4.10475E2,5.782881E2,1.16152824E2,5.8261257E1,4.184914E2,1.6113632E3,1.9001926E3,1.15564316E2,6.2731744E2,4.6294504E2,2.040759E0,9.675489E2,3.4068042E2,3.8426746E2,1.1089576E1,3.6966638E2,2.140172E1,4.3167355E1,2.501017E1,4.578034E0,3.5651447E1,2.1307028E1,1.47807E2,1.4280971E0,4.9242046E1,3.6302303E1,1.3261977E1,8.832582E1,2.1952524E1,1.115485E1,5.913525E2,1.0263712E2,6.70054E1,2.258002E2,5.2350616E2,5.0108385E0,2.4103485E2,1.4408698E2,8.581221E1,3.1449705E1,2.2499723E1,6.645511E1,2.3705583E0,5.8651294E2,2.8627008E2,1.1341556E2,3.7444065E0,7.617334E1,1.0350884E3,1.7733055E2,2.0899834E1,2.705979E2,1.398771E2,5.618341E2,1.6454018E1,5.187039E1,6.428243E1,9.688846E0,4.857241E1,7.2225586E1,3.462658E2,1.4933285E3,1.1803468E2,2.2146321E2,1.6787294E3,1.0703657E2,8.527748E0,2.1271378E2,4.146037E2,4.6032806E2,2.616996E0,1.0184456E0,1.0223135E0,8.011504E2,1.663985E2,1.49336E2,1.9134442E2],"tree_param":{"num_deleted":"0","num_feature":"47","num_nodes":"127","size_leaf_vector":"1"}},{"base_weights":[-5.115514E-3,1.2697902E-1,-2.545881E-1,2.393097E-1,-8.6773105E-2,-3.136566E-1,7.897233E-2,4.013916E-1,1.5740155E-1,1.1316772E-1,-1.6274112E-1,-3.6821663E-1,-1.1966967E-1,1.7684577E-2,4.5977607E-1,2.182746E-1,5.054981E-1,4.0010607E-1,1.0128517E-1,-6.680497E-2,2.0481189E-1,-6.141347E-2,-2.6878285E-1,-2.8330225E-1,-4.92535E-1,-1.4216514E-2,-3.318175E-1,2.2411011E-1,-1.08683236E-1,7.193601E-1,-3.9719395E-2,2.0286004E-1,1.6665856E0,8.2446367E-1,4.3056163E-1,1.0662051E0,3.596013E-1,1.330997E-1,-3.016032E-1,-2.3780194E-1,2.4264692E-1,2.3549744E-1,-6.449709E-1,-2.0799424E-1,2.1908712E-2,-3.2626152E-1,1.3069966E-2,-3.872876E-1,-1.6459662E-1,-5.8881E-1,-3.9142692E-1,-1.1515907E-1,2.639649E-1,-3.4706035E-1,1.1089402E0,-4.1057807E-1,3.0120847E-1,-1.898979E-1,6.191895E-1,-6.0400724E-1,8.432029E-1,-2.1780889E-1,1.2598938E0,9.2125796E-2,1.7838659E-2,2.2757034E-1,1.0872729E-2,9.053105E-2,1.9409508E-2,3.48273E-2,6.6577785E-2,1.5305634E-1,2.761047E-2,3.0016756E-2,8.264025E-2,1.8548036E-2,-9.332801E-3,-6.3701175E-2,-1.3411003E-2,-3.9297204E-2,9.937207E-3,1.5643142E-2,1.311702E-1,-1.8548766E-2,3.0321328E-2,-8.545382E-2,3.5773017E-2,9.824862E-3,-2.8380156E-2,-1.9568983E-2,1.0785919E-2,-6.039272E-2,-2.853253E-2,6.255371E-2,-7.3214406E-3,-4.1536354E-2,-1.1952737E-2,-2.557966E-2,4.2703324E-3,-3.406165E-2,-6.22965E-2,-5.441919E-2,-2.5804365E-2,-4.0138703E-2,-2.2028442E-3,1.3371186E-1,1.7279506E-2,-2.4244523E-2,-5.6061525E-2,-5.5675525E-2,2.1655996E-1,1.6657734E-2,-6.339721E-2,5.8900937E-3,4.7162298E-2,9.042943E-2,-2.1083381E-2,1.5802203E-1,2.5956819E-2,3.9957326E-2,-8.988159E-2,9.657308E-2,-4.1851126E-2,9.919858E-3,-9.0448365E-2,2.0806265E-1,-2.4244525E-2],"categories":[],"categories_nodes":[],"categories_segments":[],"categories_sizes":[],"default_left":[0,0,0,0,0,0,0,0,0,0,0,0,0,0,0,0,0,0,0,0,0,0,0,0,0,0,0,0,0,0,0,0,0,0,0,0,0,0,0,0,0,0,0,0,0,0,0,0,0,0,0,0,0,0,0,0,0,0,0,0,0,0,0,0,0,0,0,0,0,0,0,0,0,0,0,0,0,0,0,0,0,0,0,0,0,0,0,0,0,0,0,0,0,0,0,0,0,0,0,0,0,0,0,0,0,0,0,0,0,0,0,0,0,0,0,0,0,0,0,0,0,0,0,0,0,0,0],"id":7,"left_children":[1,3,5,7,9,11,13,15,17,19,21,23,25,27,29,31,33,35,37,39,41,43,45,47,49,51,53,55,57,59,61,63,65,67,69,71,73,75,77,79,81,83,85,87,89,91,93,95,97,99,101,103,105,107,109,111,113,115,117,119,121,123,125,-1,-1,-1,-1,-1,-1,-1,-1,-1,-1,-1,-1,-1,-1,-1,-1,-1,-1,-1,-1,-1,-1,-1,-1,-1,-1,-1,-1,-1,-1,-1,-1,-1,-1,-1,-1,-1,-1,-1,-1,-1,-1,-1,-1,-1,-1,-1,-1,-1,-1,-1,-1,-1,-1,-1,-1,-1,-1,-1,-1,-1,-1,-1,-1],"loss_changes":[4.374121E2,2.0839548E2,9.056195E1,7.546359E1,4.5438267E1,4.1275757E1,1.6144625E1,3.6285706E1,5.145365E1,1.3603103E1,2.327171E1,3.2020935E1,1.9200775E1,1.5602569E1,1.2464029E1,1.5150139E1,2.8720154E1,1.876387E1,3.941845E1,1.4807825E1,1.4394091E1,1.3556725E1,1.7156555E1,2.2309006E1,1.17916565E1,1.616198E1,6.6437073E0,1.1236125E1,2.2054985E1,1.0860897E1,8.084688E0,1.1924675E1,6.5538654E0,1.1562225E1,1.8874115E1,1.4316147E1,1.8354294E1,3.3796192E1,1.2563158E1,9.458862E0,8.984524E0,1.5104601E1,4.3618107E0,9.366169E0,1.3269489E1,9.824028E0,9.574041E0,7.207947E0,1.604453E1,5.1339417E0,1.2195068E1,1.1246084E1,1.4763807E1,6.181526E0,6.876609E0,3.3316617E0,8.357626E0,7.856059E0,1.2545047E1,2.1306703E0,9.3976555E0,6.7357492E0,5.7007623E0,0E0,0E0,0E0,0E0,0E0,0E0,0E0,0E0,0E0,0E0,0E0,0E0,0E0,0E0,0E0,0E0,0E0,0E0,0E0,0E0,0E0,0E0,0E0,0E0,0E0,0E0,0E0,0E0,0E0,0E0,0E0,0E0,0E0,0E0,0E0,0E0,0E0,0E0,0E0,0E0,0E0,0E0,0E0,0E0,0E0,0E0,0E0,0E0,0E0,0E0,0E0,0E0,0E0,0E0,0E0,0E0,0E0,0E0,0E0,0E0,0E0,0E0,0E0,0E0],"parents":[2147483647,0,0,1,1,2,2,3,3,4,4,5,5,6,6,7,7,8,8,9,9,10,10,11,11,12,12,13,13,14,14,15,15,16,16,17,17,18,18,19,19,20,20,21,21,22,22,23,23,24,24,25,25,26,26,27,27,28,28,29,29,30,30,31,31,32,32,33,33,34,34,35,35,36,36,37,37,38,38,39,39,40,40,41,41,42,42,43,43,44,44,45,45,46,46,47,47,48,48,49,49,50,50,51,51,52,52,53,53,54,54,55,55,56,56,57,57,58,58,59,59,60,60,61,61,62,62],"right_children":[2,4,6,8,10,12,14,16,18,20,22,24,26,28,30,32,34,36,38,40,42,44,46,48,50,52,54,56,58,60,62,64,66,68,70,72,74,76,78,80,82,84,86,88,90,92,94,96,98,100,102,104,106,108,110,112,114,116,118,120,122,124,126,-1,-1,-1,-1,-1,-1,-1,-1,-1,-1,-1,-1,-1,-1,-1,-1,-1,-1,-1,-1,-1,-1,-1,-1,-1,-1,-1,-1,-1,-1,-1,-1,-1,-1,-1,-1,-1,-1,-1,-1,-1,-1,-1,-1,-1,-1,-1,-1,-1,-1,-1,-1,-1,-1,-1,-1,-1,-1,-1,-1,-1,-1,-1,-1],"split_conditions":[1.1E1,5.6666665E0,7.1428573E-1,7E0,7E0,1E0,4.75E0,-3.75E-1,2.3333333E0,-1E0,7.3333335E0,1.4E1,1.5E1,9.939327E0,1E0,1.17E2,5E0,1E1,1.10344715E1,3.529412E-1,1.09856825E1,-1E0,4.75E0,0E0,0E0,1.6589862E-1,5.7E1,-6E0,1.2237226E5,0E0,5E0,7E0,1E0,1.6E1,8.5E1,9.875139E0,1.08E2,6E0,1.01E2,2.25E0,1.09E2,6.7E1,1.7857143E0,2.6666668E-1,-3.75E-1,5.8E1,9.005852E0,6.5E0,2E0,3E0,1E0,4E0,1.7414722E-1,2E1,8.6E1,3.3333334E-1,1.9E1,-1.0458333E1,1.2412786E1,4E0,2.2E1,1.6E1,1.515815E4,9.2125796E-2,1.7838659E-2,2.2757034E-1,1.0872729E-2,9.053105E-2,1.9409508E-2,3.48273E-2,6.6577785E-2,1.5305634E-1,2.761047E-2,3.0016756E-2,8.264025E-2,1.8548036E-2,-9.332801E-3,-6.3701175E-2,-1.3411003E-2,-3.9297204E-2,9.937207E-3,1.5643142E-2,1.311702E-1,-1.8548766E-2,3.0321328E-2,-8.545382E-2,3.5773017E-2,9.824862E-3,-2.8380156E-2,-1.9568983E-2,1.0785919E-2,-6.039272E-2,-2.853253E-2,6.255371E-2,-7.3214406E-3,-4.1536354E-2,-1.1952737E-2,-2.557966E-2,4.2703324E-3,-3.406165E-2,-6.22965E-2,-5.441919E-2,-2.5804365E-2,-4.0138703E-2,-2.2028442E-3,1.3371186E-1,1.7279506E-2,-2.4244523E-2,-5.6061525E-2,-5.5675525E-2,2.1655996E-1,1.6657734E-2,-6.339721E-2,5.8900937E-3,4.7162298E-2,9.042943E-2,-2.1083381E-2,1.5802203E-1,2.5956819E-2,3.9957326E-2,-8.988159E-2,9.657308E-2,-4.1851126E-2,9.919858E-3,-9.0448365E-2,2.0806265E-1,-2.4244525E-2],"split_indices":[14,11,2,14,14,9,22,22,11,9,11,14,14,39,31,8,14,13,39,2,39,24,22,9,24,20,0,24,3,9,9,13,31,0,45,39,8,25,8,22,10,8,22,19,22,8,39,22,22,18,31,46,20,14,10,19,46,22,39,18,14,14,3,0,0,0,0,0,0,0,0,0,0,0,0,0,0,0,0,0,0,0,0,0,0,0,0,0,0,0,0,0,0,0,0,0,0,0,0,0,0,0,0,0,0,0,0,0,0,0,0,0,0,0,0,0,0,0,0,0,0,0,0,0,0,0,0],"split_type":[0,0,0,0,0,0,0,0,0,0,0,0,0,0,0,0,0,0,0,0,0,0,0,0,0,0,0,0,0,0,0,0,0,0,0,0,0,0,0,0,0,0,0,0,0,0,0,0,0,0,0,0,0,0,0,0,0,0,0,0,0,0,0,0,0,0,0,0,0,0,0,0,0,0,0,0,0,0,0,0,0,0,0,0,0,0,0,0,0,0,0,0,0,0,0,0,0,0,0,0,0,0,0,0,0,0,0,0,0,0,0,0,0,0,0,0,0,0,0,0,0,0,0,0,0,0,0],"sum_hessian":[1.3271447E4,8.677332E3,4.594115E3,5.688042E3,2.9892905E3,3.9030105E3,6.9110455E2,1.9081827E3,3.7798594E3,8.229286E2,2.1663618E3,3.0455361E3,8.5747424E2,5.9619714E2,9.490742E1,6.9275903E2,1.2154237E3,7.086787E2,3.0711807E3,2.777495E2,5.4517914E2,1.108612E3,1.0577498E3,1.8114928E3,1.2340433E3,5.7347955E2,2.839947E2,2.2609343E2,3.7010373E2,6.216208E1,3.274534E1,6.865916E2,6.1674147E0,2.2932118E2,9.8610254E2,3.9172134E1,6.695066E2,2.8470312E3,2.2414941E2,1.7904457E2,9.870493E1,5.268765E2,1.830258E1,4.0124454E2,7.073675E2,8.7844885E2,1.7930093E2,9.6441187E2,8.47081E2,6.296589E2,6.043845E2,4.212194E2,1.5226015E2,2.817727E2,2.2219694E0,2.4021173E1,2.0207225E2,3.3361835E2,3.6485397E1,4.9876366E0,5.7174442E1,2.9531029E1,3.2143114E0,2.1412163E1,6.6517944E2,4.1025434E0,2.0648713E0,2.028667E2,2.6454485E1,7.3236926E2,2.5373323E2,2.4081667E1,1.5090467E1,5.95349E2,7.415756E1,2.3122969E3,5.347343E2,7.3720116E1,1.5042929E2,1.2250248E2,5.6542088E1,9.239957E1,6.305371E0,7.276455E1,4.5411197E2,1.5260797E1,3.0417848E0,7.955717E1,3.2168738E2,1.9993091E2,5.0743658E2,1.1110229E2,7.6734656E2,2.1368992E1,1.5793193E2,8.7238666E2,9.202522E1,5.881119E2,2.5896915E2,7.749547E1,5.521634E2,2.802882E2,3.240963E2,1.0259468E2,3.1862473E2,1.0852296E1,1.4140785E2,1.905583E2,9.121441E1,1.0460682E0,1.175901E0,6.7741013E0,1.7247072E1,8.399203E1,1.1808022E2,5.4713364E0,3.28147E2,9.010948E0,2.7474447E1,1.051791E0,3.9358454E0,5.23274E1,4.8470407E0,2.0789137E1,8.74189E0,1.8297747E0,1.3845365E0],"tree_param":{"num_deleted":"0","num_feature":"47","num_nodes":"127","size_leaf_vector":"1"}},{"base_weights":[-7.56369E-3,1.3909328E-1,-1.9642769E-1,-3.5833307E-2,2.2282463E-1,-3.747738E-2,-3.2255796E-1,-7.855121E-2,3.105743E-1,4.2283875E-1,1.7304265E-1,1.8216984E-2,-2.7068835E-1,-4.155764E-1,-2.0584758E-1,1.6364768E-2,-2.2446172E-1,6.7547977E-1,7.763007E-2,7.452515E-1,3.7484312E-1,3.605186E-1,1.2149258E-1,3.101391E-1,-3.2885574E-2,-4.3546754E-1,-1.1755873E-1,-2.803286E-1,-5.136861E-1,-1.6627559E-1,-5.3074074E-1,-1.255102E-1,1.2498405E-1,7.871992E-1,-2.4058603E-1,1.6150784E0,4.951951E-1,-9.725494E-2,3.958394E-1,6.149961E-1,1.5258424E0,8.075757E-1,3.31145E-1,1.8780507E-1,4.9817333E-1,8.189893E-3,2.2155647E-1,1.9387195E-1,8.9535975E-1,-1.3547924E-1,8.7775126E-2,-1.01625085E-1,-5.382775E-1,-2.4054903E-1,2.5845125E-1,-1.8978244E-1,-4.6672466E-1,-5.68162E-1,-3.7431002E-1,-2.1576144E-1,5.5199258E-2,-2.8487548E-2,-6.1547184E-1,-2.3075405E-3,-3.3948123E-2,4.0179085E-2,5.583149E-3,2.1055441E-4,1.433691E-1,2.1949147E-3,-2.9680688E-2,2.5605857E-1,7.071869E-2,6.756117E-2,-2.7213303E-2,4.9947467E-2,-2.4451409E-2,6.425506E-2,-4.8353862E-2,3.8677808E-2,1.09213345E-1,1.6674969E-1,-2.119196E-2,1.0030594E-1,3.8199414E-2,1.4213602E-2,4.1743323E-2,4.1129317E-2,-2.4557416E-3,7.076757E-2,3.3370685E-2,-1.8709854E-3,5.0582685E-2,3.18966E-2,5.558355E-3,2.8391272E-2,-1.3591486E-2,1.3459599E-1,4.4992924E-2,-5.3563487E-2,-1.0251103E-2,-1.1269993E-2,1.6590292E-2,1.6160394E-1,-1.8042788E-2,4.126725E-3,-6.040218E-2,-4.4177514E-2,3.2341275E-3,1.5915385E-2,2.2249642E-1,-3.4352053E-2,-1.0636055E-3,9.4753526E-2,-4.8778083E-2,-4.357254E-2,-6.463864E-2,1.5211524E-2,-4.229702E-2,-9.210108E-4,-2.9441912E-2,2.5778288E-2,-1.4952028E-2,7.516264E-2,-3.7826262E-2,-2.3679656E-4,-6.854428E-2],"categories":[],"categories_nodes":[],"categories_segments":[],"categories_sizes":[],"default_left":[0,0,0,0,0,0,0,0,0,0,0,0,0,0,0,0,0,0,0,0,0,0,0,0,0,0,0,0,0,0,0,0,0,0,0,0,0,0,0,0,0,0,0,0,0,0,0,0,0,0,0,0,0,0,0,0,0,0,0,0,0,0,0,0,0,0,0,0,0,0,0,0,0,0,0,0,0,0,0,0,0,0,0,0,0,0,0,0,0,0,0,0,0,0,0,0,0,0,0,0,0,0,0,0,0,0,0,0,0,0,0,0,0,0,0,0,0,0,0,0,0,0,0,0,0,0,0],"id":8,"left_children":[1,3,5,7,9,11,13,15,17,19,21,23,25,27,29,31,33,35,37,39,41,43,45,47,49,51,53,55,57,59,61,63,65,67,69,71,73,75,77,79,81,83,85,87,89,91,93,95,97,99,101,103,105,107,109,111,113,115,117,119,121,123,125,-1,-1,-1,-1,-1,-1,-1,-1,-1,-1,-1,-1,-1,-1,-1,-1,-1,-1,-1,-1,-1,-1,-1,-1,-1,-1,-1,-1,-1,-1,-1,-1,-1,-1,-1,-1,-1,-1,-1,-1,-1,-1,-1,-1,-1,-1,-1,-1,-1,-1,-1,-1,-1,-1,-1,-1,-1,-1,-1,-1,-1,-1,-1,-1],"loss_changes":[3.6764615E2,1.09442276E2,1.1630429E2,3.582775E1,5.0240265E1,3.3360115E1,3.503119E1,2.9844505E1,2.2542387E1,1.52929535E1,3.907476E1,3.0948921E1,1.2442062E1,2.3728241E1,1.8382084E1,2.014783E1,1.4043255E1,1.6722591E1,9.13018E0,1.2216759E1,1.6334137E1,2.064872E1,3.6008938E1,2.0855556E1,2.187154E1,8.118153E0,1.1993695E1,1.2714367E1,7.6950073E0,1.4063648E1,6.6011467E0,1.2419308E1,1.4150648E1,6.878459E0,1.2356602E1,1.2104351E1,1.2398378E1,9.457161E0,1.2924371E1,1.1833908E1,4.741741E0,6.2582207E0,1.2973633E1,1.8451035E1,1.6471397E1,1.9963423E1,2.7250526E1,7.732752E0,9.6203575E0,1.2540903E1,1.2738132E1,8.047291E0,6.952671E0,1.0718437E1,1.2157413E1,1.41045265E1,7.8274918E0,7.455948E0,7.6366844E0,1.7026558E1,9.782543E0,6.6963115E0,5.705223E0,0E0,0E0,0E0,0E0,0E0,0E0,0E0,0E0,0E0,0E0,0E0,0E0,0E0,0E0,0E0,0E0,0E0,0E0,0E0,0E0,0E0,0E0,0E0,0E0,0E0,0E0,0E0,0E0,0E0,0E0,0E0,0E0,0E0,0E0,0E0,0E0,0E0,0E0,0E0,0E0,0E0,0E0,0E0,0E0,0E0,0E0,0E0,0E0,0E0,0E0,0E0,0E0,0E0,0E0,0E0,0E0,0E0,0E0,0E0,0E0,0E0,0E0,0E0,0E0],"parents":[2147483647,0,0,1,1,2,2,3,3,4,4,5,5,6,6,7,7,8,8,9,9,10,10,11,11,12,12,13,13,14,14,15,15,16,16,17,17,18,18,19,19,20,20,21,21,22,22,23,23,24,24,25,25,26,26,27,27,28,28,29,29,30,30,31,31,32,32,33,33,34,34,35,35,36,36,37,37,38,38,39,39,40,40,41,41,42,42,43,43,44,44,45,45,46,46,47,47,48,48,49,49,50,50,51,51,52,52,53,53,54,54,55,55,56,56,57,57,58,58,59,59,60,60,61,61,62,62],"right_children":[2,4,6,8,10,12,14,16,18,20,22,24,26,28,30,32,34,36,38,40,42,44,46,48,50,52,54,56,58,60,62,64,66,68,70,72,74,76,78,80,82,84,86,88,90,92,94,96,98,100,102,104,106,108,110,112,114,116,118,120,122,124,126,-1,-1,-1,-1,-1,-1,-1,-1,-1,-1,-1,-1,-1,-1,-1,-1,-1,-1,-1,-1,-1,-1,-1,-1,-1,-1,-1,-1,-1,-1,-1,-1,-1,-1,-1,-1,-1,-1,-1,-1,-1,-1,-1,-1,-1,-1,-1,-1,-1,-1,-1,-1,-1,-1,-1,-1,-1,-1,-1,-1,-1,-1,-1,-1],"split_conditions":[1E1,0E0,4.5E0,2.22E3,6E0,1.6E1,8.5714287E-1,1.8333334E0,1.03E2,-9.285714E-1,-7.5E-1,-1.25E0,-1E0,-1.6666667E-1,2E0,-2E-1,-2.25E0,-1.2222222E0,1.8518518E-1,6.111111E-1,4E0,0E0,1.4285715E-1,5E0,3.4E1,1.0417711E1,4E-1,1.4E1,9.85E2,1.653E3,4E1,8.3333336E-2,9.100799E0,1.392405E-1,6E0,2.8E1,7E0,7E0,9E-1,9E1,3.48E2,1.4333333E0,4.1666666E-1,5E0,5E0,2.88E3,4.6666665E0,1.7666667E0,1.2E1,-6.8333335E0,6.315789E-2,8.695652E-3,-1.4285715E0,5.3E1,1.14E2,0E0,4.6666665E0,4.2857143E-1,1.068E3,7.5E-1,9.670203E0,7.8333336E-1,1E1,-2.3075405E-3,-3.3948123E-2,4.0179085E-2,5.583149E-3,2.1055441E-4,1.433691E-1,2.1949147E-3,-2.9680688E-2,2.5605857E-1,7.071869E-2,6.756117E-2,-2.7213303E-2,4.9947467E-2,-2.4451409E-2,6.425506E-2,-4.8353862E-2,3.8677808E-2,1.09213345E-1,1.6674969E-1,-2.119196E-2,1.0030594E-1,3.8199414E-2,1.4213602E-2,4.1743323E-2,4.1129317E-2,-2.4557416E-3,7.076757E-2,3.3370685E-2,-1.8709854E-3,5.0582685E-2,3.18966E-2,5.558355E-3,2.8391272E-2,-1.3591486E-2,1.3459599E-1,4.4992924E-2,-5.3563487E-2,-1.0251103E-2,-1.1269993E-2,1.6590292E-2,1.6160394E-1,-1.8042788E-2,4.126725E-3,-6.040218E-2,-4.4177514E-2,3.2341275E-3,1.5915385E-2,2.2249642E-1,-3.4352053E-2,-1.0636055E-3,9.4753526E-2,-4.8778083E-2,-4.357254E-2,-6.463864E-2,1.5211524E-2,-4.229702E-2,-9.210108E-4,-2.9441912E-2,2.5778288E-2,-1.4952028E-2,7.516264E-2,-3.7826262E-2,-2.3679656E-4,-6.854428E-2],"split_indices":[14,9,11,44,14,14,22,30,45,29,29,29,24,29,29,22,29,29,1,20,14,24,22,9,46,39,1,14,44,44,17,29,39,20,14,46,18,46,19,10,13,30,19,18,0,44,11,30,14,22,20,20,29,45,10,9,11,19,44,30,39,30,13,0,0,0,0,0,0,0,0,0,0,0,0,0,0,0,0,0,0,0,0,0,0,0,0,0,0,0,0,0,0,0,0,0,0,0,0,0,0,0,0,0,0,0,0,0,0,0,0,0,0,0,0,0,0,0,0,0,0,0,0,0,0,0,0],"split_type":[0,0,0,0,0,0,0,0,0,0,0,0,0,0,0,0,0,0,0,0,0,0,0,0,0,0,0,0,0,0,0,0,0,0,0,0,0,0,0,0,0,0,0,0,0,0,0,0,0,0,0,0,0,0,0,0,0,0,0,0,0,0,0,0,0,0,0,0,0,0,0,0,0,0,0,0,0,0,0,0,0,0,0,0,0,0,0,0,0,0,0,0,0,0,0,0,0,0,0,0,0,0,0,0,0,0,0,0,0,0,0,0,0,0,0,0,0,0,0,0,0,0,0,0,0,0,0],"sum_hessian":[1.3271291E4,7.4705283E3,5.800763E3,2.4185044E3,5.052024E3,2.5670476E3,3.2337153E3,2.1536912E3,2.648132E2,1.0053268E3,4.0466973E3,2.0729236E3,4.941241E2,1.7980803E3,1.435635E3,1.3054034E3,8.4828766E2,1.0244075E2,1.6237245E2,1.2838269E2,8.769441E2,8.714472E2,3.17525E3,3.080614E2,1.7648622E3,2.3712053E2,2.570036E2,7.575826E2,1.0404977E3,1.2811079E3,1.5452711E2,5.659814E2,7.39422E2,1.255805E1,8.357296E2,1.5210246E1,8.723051E1,1.05232155E2,5.7140293E1,1.1155553E2,1.6827156E1,7.88298E1,7.981143E2,3.875534E2,4.8389383E2,1.4896246E3,1.6856254E3,2.5811282E2,4.9948593E1,9.537761E2,8.1108606E2,5.62983E1,1.8082222E2,1.9393051E2,6.3073086E1,5.1124954E2,2.4633305E2,7.458872E2,2.9461057E2,1.0471588E3,2.3394902E2,2.2498848E1,1.3202827E2,3.8349695E2,1.8248445E2,1.4683888E2,5.925831E2,6.1241703E0,6.43388E0,1.4750998E2,6.8821967E2,6.5590634E0,8.651182E0,7.072172E1,1.6508791E1,2.035539E1,8.487676E1,4.4831924E1,1.2308369E1,7.6686485E1,3.4869045E1,1.5596255E1,1.2309011E0,5.3087868E1,2.5741934E1,2.50988E2,5.471263E2,1.883739E2,1.991795E2,2.1135748E2,2.7253635E2,1.4141455E3,7.547918E1,1.0616318E3,6.2399347E2,2.0286441E2,5.524841E1,2.3825188E1,2.6123405E1,7.143831E1,8.8233777E2,2.273264E2,5.8375964E2,1.613849E0,5.4684456E1,1.8460724E1,1.623615E2,1.11265656E2,8.2664856E1,6.1070324E1,2.002762E0,2.7464224E2,2.366073E2,2.9682312E0,2.4336482E2,2.794086E2,4.6647858E2,2.474823E1,2.6986234E2,2.8910358E2,7.580553E2,1.1745766E2,1.1649136E2,6.6092196E0,1.5889629E1,1.3630248E1,1.18398026E2],"tree_param":{"num_deleted":"0","num_feature":"47","num_nodes":"127","size_leaf_vector":"1"}},{"base_weights":[-4.6687415E-3,1.5456341E-1,-1.3986102E-1,2.2838327E-1,-2.8871773E-2,4.3878227E-2,-2.1837483E-1,9.684988E-2,3.064266E-1,5.99922E-2,-1.7086409E-1,1.665196E-1,-6.996716E-2,-1.5873832E-1,-3.9388126E-1,5.971497E-1,6.977313E-2,6.2521166E-1,2.733845E-1,-1.1338532E-1,1.6072468E-1,-2.9658806E-1,-2.0879056E-2,7.087256E-2,4.5775717E-1,-1.5375435E-1,1.4408794E-1,-3.3531684E-1,-8.99758E-2,-4.8528624E-1,-2.5007167E-1,1.6500304E0,4.5281982E-1,1.2937275E-1,-1.8278988E-1,1.2926215E0,5.689171E-1,6.176381E-1,2.4435374E-1,-6.586797E-3,-3.2734495E-1,2.0406516E-1,-5.133848E-1,-3.8540334E-1,3.4339163E-2,-5.1176006E-1,1.3735545E-1,4.0231782E-1,2.1110417E-2,5.887539E-1,-1.1617596E-1,-6.492656E-1,-1.1635075E-1,-3.4757648E-2,4.2444712E-1,-3.4394458E-1,7.433707E-1,-2.4419455E-1,2.634773E-3,-5.0915635E-1,-1.1319896E-1,6.0159606E-1,-2.6709074E-1,-1.6210489E-2,1.9124801E-1,2.5454719E-2,9.0770334E-2,-3.2331627E-3,2.3249429E-2,1.9729757E-4,-3.3125784E-2,1.9174904E-1,5.4228753E-2,3.0260786E-2,7.122136E-2,6.82203E-2,-5.8374792E-2,1.8274404E-2,4.0620815E-2,-3.8359927E-3,8.4984004E-2,-1.398515E-2,-5.9142675E-2,-2.977339E-2,2.4027841E-2,-9.157793E-2,-1.6734127E-2,2.6937341E-2,-4.220943E-2,-2.7675068E-2,3.8144004E-2,-6.8819955E-2,-8.564846E-3,5.5189993E-2,7.8995945E-4,-8.282408E-2,4.830461E-2,7.12266E-4,1.1524799E-1,1.2116883E-1,4.869686E-2,-4.402629E-2,4.7442432E-2,-7.182997E-2,4.8969276E-2,-3.291012E-2,-2.5880435E-3,-3.0520955E-2,1.863805E-2,6.829378E-2,-5.539428E-3,-3.1299077E-2,-6.446058E-2,-2.5740072E-2,2.147007E-1,4.6611032E-3,-3.0708307E-2,9.95339E-3,-1.1003041E-2,-5.3565305E-2,-1.6511569E-2,-5.2984394E-2,2.1717703E-2,1.4914273E-1,-5.112088E-3,-1.7480172E-2,-3.8817476E-2],"categories":[],"categories_nodes":[],"categories_segments":[],"categories_sizes":[],"default_left":[0,0,0,0,0,0,0,0,0,0,0,0,0,0,0,0,0,0,0,0,0,0,0,0,0,0,0,0,0,0,0,0,0,0,0,0,0,0,0,0,0,0,0,0,0,0,0,0,0,0,0,0,0,0,0,0,0,0,0,0,0,0,0,0,0,0,0,0,0,0,0,0,0,0,0,0,0,0,0,0,0,0,0,0,0,0,0,0,0,0,0,0,0,0,0,0,0,0,0,0,0,0,0,0,0,0,0,0,0,0,0,0,0,0,0,0,0,0,0,0,0,0,0,0,0,0,0],"id":9,"left_children":[1,3,5,7,9,11,13,15,17,19,21,23,25,27,29,31,33,35,37,39,41,43,45,47,49,51,53,55,57,59,61,63,65,67,69,71,73,75,77,79,81,83,85,87,89,91,93,95,97,99,101,103,105,107,109,111,113,115,117,119,121,123,125,-1,-1,-1,-1,-1,-1,-1,-1,-1,-1,-1,-1,-1,-1,-1,-1,-1,-1,-1,-1,-1,-1,-1,-1,-1,-1,-1,-1,-1,-1,-1,-1,-1,-1,-1,-1,-1,-1,-1,-1,-1,-1,-1,-1,-1,-1,-1,-1,-1,-1,-1,-1,-1,-1,-1,-1,-1,-1,-1,-1,-1,-1,-1,-1],"loss_changes":[2.8510654E2,8.2355804E1,1.0334004E2,4.4485214E1,2.2040754E1,2.9963722E1,5.2464355E1,2.1853401E1,2.8491867E1,1.8786247E1,1.2671839E1,2.8743296E1,1.998777E1,4.5470848E1,1.660048E1,1.1843174E1,2.3121033E1,8.837158E0,2.4507843E1,9.035218E0,1.9975426E1,1.0760868E1,2.3967735E1,1.2836817E1,1.925542E1,1.4761532E1,1.5742956E1,1.0027008E1,3.8541107E1,6.840851E0,7.35594E0,4.880478E0,6.4648914E0,2.0719141E1,8.048386E0,7.883768E0,8.819107E0,1.5231888E1,2.263292E1,7.2391324E0,6.4364166E0,1.1697012E1,5.607373E0,7.0418625E0,8.559569E0,5.5955772E0,1.2523886E1,1.0494066E1,1.0724592E1,1.2594727E1,9.446009E0,4.7523975E0,1.4341873E1,1.1565928E1,1.5200281E1,9.498398E0,1.2699852E1,1.853093E1,1.8428164E1,6.5625305E0,6.7372675E0,5.903481E0,5.3784523E0,0E0,0E0,0E0,0E0,0E0,0E0,0E0,0E0,0E0,0E0,0E0,0E0,0E0,0E0,0E0,0E0,0E0,0E0,0E0,0E0,0E0,0E0,0E0,0E0,0E0,0E0,0E0,0E0,0E0,0E0,0E0,0E0,0E0,0E0,0E0,0E0,0E0,0E0,0E0,0E0,0E0,0E0,0E0,0E0,0E0,0E0,0E0,0E0,0E0,0E0,0E0,0E0,0E0,0E0,0E0,0E0,0E0,0E0,0E0,0E0,0E0,0E0,0E0,0E0],"parents":[2147483647,0,0,1,1,2,2,3,3,4,4,5,5,6,6,7,7,8,8,9,9,10,10,11,11,12,12,13,13,14,14,15,15,16,16,17,17,18,18,19,19,20,20,21,21,22,22,23,23,24,24,25,25,26,26,27,27,28,28,29,29,30,30,31,31,32,32,33,33,34,34,35,35,36,36,37,37,38,38,39,39,40,40,41,41,42,42,43,43,44,44,45,45,46,46,47,47,48,48,49,49,50,50,51,51,52,52,53,53,54,54,55,55,56,56,57,57,58,58,59,59,60,60,61,61,62,62],"right_children":[2,4,6,8,10,12,14,16,18,20,22,24,26,28,30,32,34,36,38,40,42,44,46,48,50,52,54,56,58,60,62,64,66,68,70,72,74,76,78,80,82,84,86,88,90,92,94,96,98,100,102,104,106,108,110,112,114,116,118,120,122,124,126,-1,-1,-1,-1,-1,-1,-1,-1,-1,-1,-1,-1,-1,-1,-1,-1,-1,-1,-1,-1,-1,-1,-1,-1,-1,-1,-1,-1,-1,-1,-1,-1,-1,-1,-1,-1,-1,-1,-1,-1,-1,-1,-1,-1,-1,-1,-1,-1,-1,-1,-1,-1,-1,-1,-1,-1,-1,-1,-1,-1,-1,-1,-1,-1],"split_conditions":[9E0,6E0,3.6666667E0,-2.5E-1,2E0,9.939327E0,1.4E1,8E0,5E0,9.98004E-2,0E0,1E0,1.01E2,-1E0,1.5E0,2.4E1,1.1E1,8.90636E0,1E1,8.076923E-1,7.5E1,1E0,6.8E1,2E0,6.3E1,0E0,1.27E2,7E-1,3.77E2,5E0,1.3333334E-1,1.3973E3,1.8584071E-1,7.7E1,5E1,5.833333E-1,2E1,1.02E2,1.579E3,1.07333336E2,1.1E0,-3E0,3.4848484E-1,5E0,1E0,1.068E3,6.8E1,1.6216217E-2,3.257E3,8.892939E0,9.3E1,2.929E3,2E0,9.090909E-2,1.2508096E1,5.75E0,2.1428572E-1,2.3076923E-1,9.530451E0,4E0,1E1,1E0,6.5E0,-1.6210489E-2,1.9124801E-1,2.5454719E-2,9.0770334E-2,-3.2331627E-3,2.3249429E-2,1.9729757E-4,-3.3125784E-2,1.9174904E-1,5.4228753E-2,3.0260786E-2,7.122136E-2,6.82203E-2,-5.8374792E-2,1.8274404E-2,4.0620815E-2,-3.8359927E-3,8.4984004E-2,-1.398515E-2,-5.9142675E-2,-2.977339E-2,2.4027841E-2,-9.157793E-2,-1.6734127E-2,2.6937341E-2,-4.220943E-2,-2.7675068E-2,3.8144004E-2,-6.8819955E-2,-8.564846E-3,5.5189993E-2,7.8995945E-4,-8.282408E-2,4.830461E-2,7.12266E-4,1.1524799E-1,1.2116883E-1,4.869686E-2,-4.402629E-2,4.7442432E-2,-7.182997E-2,4.8969276E-2,-3.291012E-2,-2.5880435E-3,-3.0520955E-2,1.863805E-2,6.829378E-2,-5.539428E-3,-3.1299077E-2,-6.446058E-2,-2.5740072E-2,2.147007E-1,4.6611032E-3,-3.0708307E-2,9.95339E-3,-1.1003041E-2,-5.3565305E-2,-1.6511569E-2,-5.2984394E-2,2.1717703E-2,1.4914273E-1,-5.112088E-3,-1.7480172E-2,-3.8817476E-2],"split_indices":[14,11,11,22,30,39,14,13,14,20,9,23,8,9,22,44,0,39,13,19,17,23,8,11,13,9,46,2,44,9,30,3,20,8,17,2,46,10,44,10,30,9,2,14,26,44,10,20,44,39,46,44,6,20,39,30,5,19,39,4,46,12,11,0,0,0,0,0,0,0,0,0,0,0,0,0,0,0,0,0,0,0,0,0,0,0,0,0,0,0,0,0,0,0,0,0,0,0,0,0,0,0,0,0,0,0,0,0,0,0,0,0,0,0,0,0,0,0,0,0,0,0,0,0,0,0,0],"split_type":[0,0,0,0,0,0,0,0,0,0,0,0,0,0,0,0,0,0,0,0,0,0,0,0,0,0,0,0,0,0,0,0,0,0,0,0,0,0,0,0,0,0,0,0,0,0,0,0,0,0,0,0,0,0,0,0,0,0,0,0,0,0,0,0,0,0,0,0,0,0,0,0,0,0,0,0,0,0,0,0,0,0,0,0,0,0,0,0,0,0,0,0,0,0,0,0,0,0,0,0,0,0,0,0,0,0,0,0,0,0,0,0,0,0,0,0,0,0,0,0,0,0,0,0,0,0,0],"sum_hessian":[1.324216E4,6.0804004E3,7.1617593E3,4.3354424E3,1.7449581E3,2.1442332E3,5.0175264E3,1.6152905E3,2.7201519E3,1.0736232E3,6.71335E2,1.0320171E3,1.1122161E3,3.746412E3,1.2711143E3,8.185184E1,1.5334387E3,2.5378185E2,2.4663699E3,3.944988E2,6.791243E2,3.646729E2,3.066621E2,7.7781396E2,2.542031E2,7.9953656E2,3.1267944E2,1.0489325E3,2.6974797E3,7.757043E2,4.9540994E2,8.609985E0,7.324185E1,1.2410616E3,2.9237698E2,1.8032526E1,2.3574933E2,1.9023572E2,2.2761343E3,2.6383545E2,1.3066338E2,6.387542E2,4.0370094E1,2.8738028E2,7.729265E1,7.421021E1,2.3245189E2,1.0060963E2,6.7720435E2,2.0694366E2,4.7259434E1,5.49688E1,7.4456775E2,1.9143562E2,1.2124381E2,1.041285E3,7.6474314E0,1.0114825E3,1.6859972E3,7.2859515E2,4.7109135E1,9.0329895E0,4.8637695E2,1.1375929E0,7.472392E0,5.209465E1,2.11472E1,4.8352887E2,7.5753284E2,1.3070554E2,1.6167145E2,8.990135E0,9.04239E0,8.356319E1,1.5218614E2,1.8094359E2,9.292117E0,1.6501395E3,6.2599475E2,2.5531844E2,8.517013E0,7.73066E1,5.3356773E1,4.250804E1,5.962462E2,1.7904057E1,2.2466038E1,1.4912595E1,2.7246768E2,4.086763E1,3.6425014E1,5.204496E1,2.216525E1,5.4540066E1,1.7791182E2,5.6238856E0,9.498574E1,6.699279E2,7.2763996E0,2.7533283E1,1.7941037E2,3.0679092E1,1.6580343E1,5.217569E1,2.7931113E0,2.213656E2,5.2320215E2,8.594488E1,1.05490746E2,7.852118E1,4.272264E1,9.459392E2,9.534583E1,4.941112E0,2.7063198E0,1.7989246E2,8.3159E2,9.064822E2,7.79515E2,6.75977E2,5.2618122E1,2.0567373E1,2.6541763E1,3.27852E0,5.7544694E0,2.773938E2,2.0898314E2],"tree_param":{"num_deleted":"0","num_feature":"47","num_nodes":"127","size_leaf_vector":"1"}},{"base_weights":[-5.55401E-3,6.386815E-2,-1.9956E-1,1.1858269E-1,-1.9308475E-1,-2.9579857E-1,-6.540537E-2,-3.3128724E-2,1.8048592E-1,-2.2953299E-1,2.2618361E-1,-3.428859E-1,-9.62574E-2,-8.616933E-2,4.2349577E-1,-1.0600227E-1,1.4314371E-1,7.9675205E-2,2.843301E-1,6.35456E-2,-2.8408378E-1,4.0169305E-1,-6.326477E-1,-2.9546082E-1,-5.1772785E-1,1.3634907E-1,-2.275461E-1,-7.5356956E-3,-2.5023875E-1,2.0945574E-1,1.3247132E0,-1.8267633E-1,1.3608947E-2,-2.824049E-1,2.0713711E-1,3.0082577E-1,1.1330468E-2,3.2680836E-1,7.410489E-2,-4.377669E-1,1.4266892E-1,-2.3704241E-1,-5.701473E-1,-2.509245E-1,6.147034E-1,-9.528313E-1,6.99352E-2,-1.02101475E-1,-3.544068E-1,-6.3254756E-1,-3.7020537E-1,4.4895822E-1,-2.878048E-1,1.2412965E0,-2.4718553E-1,-1.1197175E-1,1.6692047E-1,-1.3172261E-1,-4.8439133E-1,-2.4665168E-1,5.7767886E-1,-4.6199154E-2,1.7725408E0,-4.2040188E-2,-1.3540973E-2,-1.996218E-2,6.8764063E-3,4.586653E-2,-3.539429E-2,1.7141202E-2,1.0521984E-1,2.7578345E-2,1.1169352E-1,-2.1952875E-4,9.2658125E-2,6.2446415E-2,2.9794587E-2,1.7738663E-2,-1.794563E-2,-5.3765703E-2,5.1519226E-2,3.733268E-2,-6.939375E-3,-2.940323E-2,-1.8825757E-3,-5.8734316E-2,9.3369186E-2,5.4886885E-2,-4.4087335E-2,1.6526906E-1,4.7264457E-2,-1.06728785E-1,-7.857324E-3,7.213929E-2,-8.6428754E-2,-2.6410813E-2,7.0651094E-3,-2.2665635E-4,-4.0008303E-2,-7.1487464E-2,-4.4342983E-3,-4.169936E-2,1.0978625E-1,5.6717653E-2,-8.171465E-2,-3.7360836E-2,7.884933E-2,1.882605E-1,-9.309139E-3,-4.8877373E-2,-1.267611E-2,-1.5001255E-2,7.394661E-2,5.771358E-3,4.554763E-2,-1.6554352E-2,5.72437E-2,-3.0577248E-2,-7.385291E-2,-4.1378655E-2,1.13649726E-1,9.406933E-2,5.9377835E-3,4.0790145E-3,2.3978578E-1],"categories":[],"categories_nodes":[],"categories_segments":[],"categories_sizes":[],"default_left":[0,0,0,0,0,0,0,0,0,0,0,0,0,0,0,0,0,0,0,0,0,0,0,0,0,0,0,0,0,0,0,0,0,0,0,0,0,0,0,0,0,0,0,0,0,0,0,0,0,0,0,0,0,0,0,0,0,0,0,0,0,0,0,0,0,0,0,0,0,0,0,0,0,0,0,0,0,0,0,0,0,0,0,0,0,0,0,0,0,0,0,0,0,0,0,0,0,0,0,0,0,0,0,0,0,0,0,0,0,0,0,0,0,0,0,0,0,0,0,0,0,0,0,0,0],"id":10,"left_children":[1,3,5,7,9,11,13,15,17,19,21,23,25,27,29,31,33,35,37,39,41,43,45,47,49,51,53,55,57,59,61,63,65,67,69,71,73,75,77,79,81,83,85,87,89,91,93,95,97,99,101,103,105,107,109,111,113,115,117,119,121,-1,123,-1,-1,-1,-1,-1,-1,-1,-1,-1,-1,-1,-1,-1,-1,-1,-1,-1,-1,-1,-1,-1,-1,-1,-1,-1,-1,-1,-1,-1,-1,-1,-1,-1,-1,-1,-1,-1,-1,-1,-1,-1,-1,-1,-1,-1,-1,-1,-1,-1,-1,-1,-1,-1,-1,-1,-1,-1,-1,-1,-1,-1,-1],"loss_changes":[1.7776059E2,1.3668062E2,4.4887466E1,7.527308E1,2.613475E1,1.8993958E1,1.4798717E1,2.985994E1,5.956569E1,2.513147E1,2.0906769E1,1.34292755E1,1.1880559E1,1.8005524E1,1.1183152E1,1.5083012E1,1.8576153E1,4.367176E1,2.501088E1,9.872155E0,1.7688232E1,1.6054333E1,5.3839874E0,1.4676521E1,5.663368E0,1.8774275E1,7.4725075E0,1.7228603E1,1.2484789E1,8.40534E0,9.792244E0,1.1203133E1,7.5789413E0,4.8971796E0,1.7682302E1,1.3633266E1,2.734175E1,1.9847763E1,1.2406941E1,3.509542E0,1.051071E1,1.4161156E1,5.3669777E0,4.6257286E0,1.197694E1,1.5477829E0,5.694063E0,8.49828E0,1.5904335E1,9.3810425E0,1.1090546E1,1.263876E1,5.860847E0,3.1220732E0,7.093711E0,1.9268219E1,1.1132798E1,7.2774878E0,6.655258E0,5.7126646E0,5.1222525E0,0E0,9.83659E0,0E0,0E0,0E0,0E0,0E0,0E0,0E0,0E0,0E0,0E0,0E0,0E0,0E0,0E0,0E0,0E0,0E0,0E0,0E0,0E0,0E0,0E0,0E0,0E0,0E0,0E0,0E0,0E0,0E0,0E0,0E0,0E0,0E0,0E0,0E0,0E0,0E0,0E0,0E0,0E0,0E0,0E0,0E0,0E0,0E0,0E0,0E0,0E0,0E0,0E0,0E0,0E0,0E0,0E0,0E0,0E0,0E0,0E0,0E0,0E0,0E0,0E0],"parents":[2147483647,0,0,1,1,2,2,3,3,4,4,5,5,6,6,7,7,8,8,9,9,10,10,11,11,12,12,13,13,14,14,15,15,16,16,17,17,18,18,19,19,20,20,21,21,22,22,23,23,24,24,25,25,26,26,27,27,28,28,29,29,30,30,31,31,32,32,33,33,34,34,35,35,36,36,37,37,38,38,39,39,40,40,41,41,42,42,43,43,44,44,45,45,46,46,47,47,48,48,49,49,50,50,51,51,52,52,53,53,54,54,55,55,56,56,57,57,58,58,59,59,60,60,62,62],"right_children":[2,4,6,8,10,12,14,16,18,20,22,24,26,28,30,32,34,36,38,40,42,44,46,48,50,52,54,56,58,60,62,64,66,68,70,72,74,76,78,80,82,84,86,88,90,92,94,96,98,100,102,104,106,108,110,112,114,116,118,120,122,-1,124,-1,-1,-1,-1,-1,-1,-1,-1,-1,-1,-1,-1,-1,-1,-1,-1,-1,-1,-1,-1,-1,-1,-1,-1,-1,-1,-1,-1,-1,-1,-1,-1,-1,-1,-1,-1,-1,-1,-1,-1,-1,-1,-1,-1,-1,-1,-1,-1,-1,-1,-1,-1,-1,-1,-1,-1,-1,-1,-1,-1,-1,-1],"split_conditions":[8E0,6.25E-1,4.8387095E-1,0E0,1.07E2,6E0,1.12E2,1E0,2.2222222E-1,1.2E1,2.4444444E0,1.3E1,3.3333335E-2,7E0,2.3076923E-1,9.97E2,-3E0,-9.285714E-1,2.2666667E0,2.2222222E-1,3.3333333E0,5.15E2,3.1E0,-7.777778E-1,1.1764706E-1,1.5666667E0,4.99499E3,1.1E0,1.35E0,4E-1,5.31E2,0E0,-2E0,-1.7142857E0,1.02E2,1E0,1.15E2,1E1,8.7E1,4E0,5.5555556E-2,1.402E3,3.349E3,1E0,1.5E-1,6E-1,2.1428572E-1,-1.0769231E0,3.6666667E-1,4.75E0,8E1,9.6E1,2.282E3,8.1E1,7.2463766E-2,3.037E3,3E0,8.695652E-1,1.6666667E-1,2.3E1,4.3333334E-1,-4.6199154E-2,2.6666668E-1,-4.2040188E-2,-1.3540973E-2,-1.996218E-2,6.8764063E-3,4.586653E-2,-3.539429E-2,1.7141202E-2,1.0521984E-1,2.7578345E-2,1.1169352E-1,-2.1952875E-4,9.2658125E-2,6.2446415E-2,2.9794587E-2,1.7738663E-2,-1.794563E-2,-5.3765703E-2,5.1519226E-2,3.733268E-2,-6.939375E-3,-2.940323E-2,-1.8825757E-3,-5.8734316E-2,9.3369186E-2,5.4886885E-2,-4.4087335E-2,1.6526906E-1,4.7264457E-2,-1.06728785E-1,-7.857324E-3,7.213929E-2,-8.6428754E-2,-2.6410813E-2,7.0651094E-3,-2.2665635E-4,-4.0008303E-2,-7.1487464E-2,-4.4342983E-3,-4.169936E-2,1.0978625E-1,5.6717653E-2,-8.171465E-2,-3.7360836E-2,7.884933E-2,1.882605E-1,-9.309139E-3,-4.8877373E-2,-1.267611E-2,-1.5001255E-2,7.394661E-2,5.771358E-3,4.554763E-2,-1.6554352E-2,5.72437E-2,-3.0577248E-2,-7.385291E-2,-4.1378655E-2,1.13649726E-1,9.406933E-2,5.9377835E-3,4.0790145E-3,2.3978578E-1],"split_indices":[18,29,2,9,8,24,8,7,22,13,29,18,1,0,20,44,9,29,30,2,30,44,22,29,20,30,3,22,30,1,44,7,9,29,8,20,8,13,8,4,5,44,44,38,30,5,5,22,30,22,17,8,44,8,20,44,9,20,5,0,30,0,5,0,0,0,0,0,0,0,0,0,0,0,0,0,0,0,0,0,0,0,0,0,0,0,0,0,0,0,0,0,0,0,0,0,0,0,0,0,0,0,0,0,0,0,0,0,0,0,0,0,0,0,0,0,0,0,0,0,0,0,0,0,0],"split_type":[0,0,0,0,0,0,0,0,0,0,0,0,0,0,0,0,0,0,0,0,0,0,0,0,0,0,0,0,0,0,0,0,0,0,0,0,0,0,0,0,0,0,0,0,0,0,0,0,0,0,0,0,0,0,0,0,0,0,0,0,0,0,0,0,0,0,0,0,0,0,0,0,0,0,0,0,0,0,0,0,0,0,0,0,0,0,0,0,0,0,0,0,0,0,0,0,0,0,0,0,0,0,0,0,0,0,0,0,0,0,0,0,0,0,0,0,0,0,0,0,0,0,0,0,0],"sum_hessian":[1.3196483E4,9.719261E3,3.4772224E3,8.0134473E3,1.7058135E3,2.0240347E3,1.4531876E3,2.3223457E3,5.6911016E3,1.5697987E3,1.3601471E2,1.6370164E3,3.8701822E2,1.3947744E3,5.8413277E1,1.643357E3,6.789887E2,2.888625E3,2.8024766E3,2.4631056E2,1.3234882E3,1.1337736E2,2.2637344E1,1.2898424E3,3.47174E2,1.396173E2,2.4740092E2,9.435869E2,4.511875E2,4.81985E1,1.0214777E1,1.0010983E3,6.4225867E2,8.831189E1,5.906768E2,6.811504E2,2.2074746E3,2.330932E3,4.7154453E2,3.295845E1,2.1335211E2,1.1381543E3,1.853339E2,2.785566E1,8.55217E1,1.53059E1,7.3314443E0,3.0198355E2,9.878588E2,1.93377E2,1.5379703E2,8.0343895E1,5.927339E1,2.4435327E0,2.449574E2,5.904684E2,3.5311853E2,3.0060107E2,1.5058641E2,2.1677439E1,2.6521063E1,2.0408273E0,8.173949E0,1.6472519E2,8.3637317E2,1.3145024E2,5.1080844E2,7.2981358E0,8.1013756E1,5.6787274E2,2.280406E1,6.621696E2,1.8980755E1,2.1763103E3,3.116434E1,2.0421802E2,2.1267139E3,3.3527795E2,1.3626659E2,3.022594E1,2.73251E0,1.0183117E2,1.11520935E2,9.021893E2,2.3596501E2,1.8384117E2,1.492729E0,4.983349E0,2.287231E1,9.015311E0,7.650639E1,1.3338812E1,1.9670879E0,4.4536285E0,2.8778157E0,1.5556578E2,1.4641779E2,1.1354383E2,8.74315E2,1.6944548E2,2.3931513E1,1.4974066E2,4.0563707E0,7.398758E1,6.3563147E0,5.5501625E1,3.7717676E0,1.3728848E0,1.070648E0,8.04682E1,1.644892E2,5.660041E2,2.446429E1,2.570394E2,9.607915E1,2.875547E2,1.3046392E1,8.97262E1,6.086022E1,1.996569E1,1.7117465E0,1.5117744E1,1.1403317E1,2.451103E0,5.7228465E0],"tree_param":{"num_deleted":"0","num_feature":"47","num_nodes":"125","size_leaf_vector":"1"}},{"base_weights":[-1.9084243E-3,9.077197E-2,-1.9107011E-1,-7.341041E-3,2.0471871E-1,-3.4121665E-1,-1.1207301E-1,8.89856E-2,-9.602395E-2,2.563464E-1,5.669107E-2,-2.0528926E-1,-4.0659696E-1,-7.388742E-2,-4.6021032E-1,-3.5699156E-1,1.1499154E-1,3.1514086E-2,-1.7816328E-1,3.102596E-1,5.957328E-2,-8.4921405E-2,3.08674E-1,-3.5635325E-1,-3.799981E-2,-5.268273E-1,-2.889939E-1,-4.8484527E-2,-4.6987733E-1,-1.9290504E-1,-5.716332E-1,-4.0782288E-1,5.436647E-1,2.1680342E-1,2.7291203E-4,4.1094902E-1,1.9042629E-3,-1.3250858E-1,-3.8897544E-1,5.28071E-1,2.6123115E-1,-1.3977294E-1,1.7499837E-1,-9.274687E-3,-3.4169206E-1,1.21195145E-1,6.770353E-1,-3.9370346E-1,2.349355E-1,1.5691578E-1,-5.645468E-2,-5.513178E-1,2.8629977E-1,-1.7545849E-1,-4.1854712E-1,-1.7236136E-1,3.417082E-2,-3.3966016E-3,-5.952392E-1,-3.303644E-1,5.766092E-1,-3.662714E-1,-7.065195E-1,1.1075322E-2,-4.8320785E-2,-6.889967E-2,9.963115E-2,-6.3878344E-3,2.8568147E-2,-4.5999583E-2,3.682332E-3,-2.4571842E-2,6.529047E-2,6.6406974E-3,-2.0970998E-2,-2.2489216E-2,-2.5211256E-3,-4.8702423E-2,-1.5766453E-2,6.633766E-2,2.6970137E-2,3.6352344E-2,1.3191752E-2,5.179591E-3,-3.2897443E-2,-2.967283E-3,3.1285625E-2,-1.1140692E-2,1.7682528E-2,2.5389358E-2,-5.103873E-2,2.3579713E-2,-3.4751892E-2,8.770953E-2,2.0692823E-2,-2.752822E-2,-5.6827117E-2,-3.7120614E-2,1.0439439E-1,-8.153677E-3,1.0642618E-1,-5.2069288E-2,-9.531341E-2,-3.2152317E-2,1.02423094E-1,-2.6000937E-2,2.2167893E-2,-4.685056E-2,5.097681E-3,-1.31160915E-2,-4.492866E-2,7.0719174E-3,-3.7487507E-2,-1.9384524E-2,1.5251452E-1,-6.441366E-2,1.8126164E-3,-4.108457E-2,4.48461E-2,1.3657871E-1,3.8291742E-3,-7.910172E-2,-2.1039994E-2,-7.351958E-2,-6.815707E-4],"categories":[],"categories_nodes":[],"categories_segments":[],"categories_sizes":[],"default_left":[0,0,0,0,0,0,0,0,0,0,0,0,0,0,0,0,0,0,0,0,0,0,0,0,0,0,0,0,0,0,0,0,0,0,0,0,0,0,0,0,0,0,0,0,0,0,0,0,0,0,0,0,0,0,0,0,0,0,0,0,0,0,0,0,0,0,0,0,0,0,0,0,0,0,0,0,0,0,0,0,0,0,0,0,0,0,0,0,0,0,0,0,0,0,0,0,0,0,0,0,0,0,0,0,0,0,0,0,0,0,0,0,0,0,0,0,0,0,0,0,0,0,0,0,0],"id":11,"left_children":[1,3,5,7,9,11,13,15,17,19,21,23,25,27,29,31,33,35,37,39,41,43,45,47,49,51,53,55,57,59,61,63,65,67,69,71,73,75,77,79,81,83,85,87,89,91,93,95,97,-1,99,101,103,105,107,109,111,113,115,117,119,121,123,-1,-1,-1,-1,-1,-1,-1,-1,-1,-1,-1,-1,-1,-1,-1,-1,-1,-1,-1,-1,-1,-1,-1,-1,-1,-1,-1,-1,-1,-1,-1,-1,-1,-1,-1,-1,-1,-1,-1,-1,-1,-1,-1,-1,-1,-1,-1,-1,-1,-1,-1,-1,-1,-1,-1,-1,-1,-1,-1,-1,-1,-1],"loss_changes":[2.3044403E2,9.862967E1,5.1230484E1,4.051188E1,3.1179382E1,1.315509E1,3.7637405E1,2.640647E1,2.5871794E1,3.208313E1,3.7735374E1,1.2264023E1,1.4055496E1,2.5677147E1,8.226479E0,5.967244E0,2.5096882E1,1.0875874E1,1.4404659E1,2.5224197E1,1.5026956E1,1.3153137E1,2.619027E1,5.7279816E0,6.9593835E0,1.0028168E1,7.430744E0,2.4599613E1,8.997829E0,9.060827E0,5.199562E0,4.7198563E0,4.666461E0,2.2027126E1,1.7030756E1,1.1294141E1,1.2285416E1,1.224766E1,5.9755783E0,1.5041855E1,2.5621536E1,8.703012E0,1.167263E1,9.983423E0,1.5613232E1,1.3689791E1,1.1865898E1,4.8129845E0,8.129226E0,0E0,6.5517273E0,5.4288635E0,7.1246367E0,9.245367E0,5.5962486E0,1.091054E1,2.1576988E1,1.0078078E1,3.6495514E0,4.6838E0,5.501803E0,5.1428337E0,2.359745E0,0E0,0E0,0E0,0E0,0E0,0E0,0E0,0E0,0E0,0E0,0E0,0E0,0E0,0E0,0E0,0E0,0E0,0E0,0E0,0E0,0E0,0E0,0E0,0E0,0E0,0E0,0E0,0E0,0E0,0E0,0E0,0E0,0E0,0E0,0E0,0E0,0E0,0E0,0E0,0E0,0E0,0E0,0E0,0E0,0E0,0E0,0E0,0E0,0E0,0E0,0E0,0E0,0E0,0E0,0E0,0E0,0E0,0E0,0E0,0E0,0E0,0E0],"parents":[2147483647,0,0,1,1,2,2,3,3,4,4,5,5,6,6,7,7,8,8,9,9,10,10,11,11,12,12,13,13,14,14,15,15,16,16,17,17,18,18,19,19,20,20,21,21,22,22,23,23,24,24,25,25,26,26,27,27,28,28,29,29,30,30,31,31,32,32,33,33,34,34,35,35,36,36,37,37,38,38,39,39,40,40,41,41,42,42,43,43,44,44,45,45,46,46,47,47,48,48,50,50,51,51,52,52,53,53,54,54,55,55,56,56,57,57,58,58,59,59,60,60,61,61,62,62],"right_children":[2,4,6,8,10,12,14,16,18,20,22,24,26,28,30,32,34,36,38,40,42,44,46,48,50,52,54,56,58,60,62,64,66,68,70,72,74,76,78,80,82,84,86,88,90,92,94,96,98,-1,100,102,104,106,108,110,112,114,116,118,120,122,124,-1,-1,-1,-1,-1,-1,-1,-1,-1,-1,-1,-1,-1,-1,-1,-1,-1,-1,-1,-1,-1,-1,-1,-1,-1,-1,-1,-1,-1,-1,-1,-1,-1,-1,-1,-1,-1,-1,-1,-1,-1,-1,-1,-1,-1,-1,-1,-1,-1,-1,-1,-1,-1,-1,-1,-1,-1,-1,-1,-1,-1,-1],"split_conditions":[1.1E1,5E-1,0E0,8E0,7E1,-6.363636E-1,2E1,2E0,-1.1111111E-1,6.3E1,1.06E2,2.9E1,1E0,4.1666665E0,-7.2727275E-1,1.34E2,1.4166666E0,6.9E1,2.9166667E0,6.4E1,1.4E1,1.1139831E1,5E-1,1.4E1,3E1,4E-1,5.4545456E-1,1.27E2,-8.75E-1,8E-1,5E0,6.4E1,1.1111111E-1,3E0,6E1,6.6E1,8.888889E-1,1E0,6E1,9.344127E0,1.15E0,7.4074075E-2,8.1E1,9.6E1,1E1,1.2056112E1,1.2508096E1,1.7E0,3.6363637E-1,1.5691578E-1,1.39E2,7.5E0,9.8E1,2.2222222E-1,1E1,4.2857143E-1,1.5882353E0,2.92E2,5E0,8.992195E4,8.6666664E1,2.028E3,7E0,1.1075322E-2,-4.8320785E-2,-6.889967E-2,9.963115E-2,-6.3878344E-3,2.8568147E-2,-4.5999583E-2,3.682332E-3,-2.4571842E-2,6.529047E-2,6.6406974E-3,-2.0970998E-2,-2.2489216E-2,-2.5211256E-3,-4.8702423E-2,-1.5766453E-2,6.633766E-2,2.6970137E-2,3.6352344E-2,1.3191752E-2,5.179591E-3,-3.2897443E-2,-2.967283E-3,3.1285625E-2,-1.1140692E-2,1.7682528E-2,2.5389358E-2,-5.103873E-2,2.3579713E-2,-3.4751892E-2,8.770953E-2,2.0692823E-2,-2.752822E-2,-5.6827117E-2,-3.7120614E-2,1.0439439E-1,-8.153677E-3,1.0642618E-1,-5.2069288E-2,-9.531341E-2,-3.2152317E-2,1.02423094E-1,-2.6000937E-2,2.2167893E-2,-4.685056E-2,5.097681E-3,-1.31160915E-2,-4.492866E-2,7.0719174E-3,-3.7487507E-2,-1.9384524E-2,1.5251452E-1,-6.441366E-2,1.8126164E-3,-4.108457E-2,4.48461E-2,1.3657871E-1,3.8291742E-3,-7.910172E-2,-2.1039994E-2,-7.351958E-2,-6.815707E-4],"split_indices":[14,2,9,14,17,29,14,6,29,13,8,46,31,30,29,21,30,10,30,10,46,39,1,24,46,1,29,21,29,2,0,10,1,46,8,8,19,24,17,39,30,1,8,8,8,39,39,30,2,0,21,30,8,5,24,29,29,13,9,3,10,3,4,0,0,0,0,0,0,0,0,0,0,0,0,0,0,0,0,0,0,0,0,0,0,0,0,0,0,0,0,0,0,0,0,0,0,0,0,0,0,0,0,0,0,0,0,0,0,0,0,0,0,0,0,0,0,0,0,0,0,0,0,0,0],"split_type":[0,0,0,0,0,0,0,0,0,0,0,0,0,0,0,0,0,0,0,0,0,0,0,0,0,0,0,0,0,0,0,0,0,0,0,0,0,0,0,0,0,0,0,0,0,0,0,0,0,0,0,0,0,0,0,0,0,0,0,0,0,0,0,0,0,0,0,0,0,0,0,0,0,0,0,0,0,0,0,0,0,0,0,0,0,0,0,0,0,0,0,0,0,0,0,0,0,0,0,0,0,0,0,0,0,0,0,0,0,0,0,0,0,0,0,0,0,0,0,0,0,0,0,0,0],"sum_hessian":[1.314252E4,8.821108E3,4.321411E3,4.740377E3,4.0807317E3,1.4886589E3,2.8327522E3,2.2722615E3,2.4681152E3,3.0249768E3,1.0557549E3,4.848281E2,1.0038309E3,2.553845E3,2.7890735E2,1.24498764E2,2.1477627E3,9.671047E2,1.5010105E3,2.3739653E3,6.5101154E2,6.7632715E2,3.794277E2,2.5417525E2,2.3065285E2,4.9465024E2,5.0918063E2,2.4009458E3,1.528991E2,8.285888E1,1.9604846E2,1.1836563E2,6.1331344E0,1.1374209E3,1.0103419E3,6.907425E1,8.9803046E2,1.2351482E3,2.658623E2,4.3439093E2,1.9395743E3,2.3864537E2,4.1236615E2,5.2321875E2,1.5310838E2,2.5233159E2,1.2709611E2,2.3938788E2,1.4787364E1,1.664582E0,2.2898827E2,4.805001E2,1.4150157E1,2.7262076E2,2.3655989E2,9.604378E2,1.440508E3,3.2604073E1,1.2029503E2,7.0785126E1,1.2073758E1,7.91934E1,1.1685506E2,1.4963305E1,1.0340233E2,1.5070206E0,4.626114E0,2.2413426E2,9.132866E2,7.347738E1,9.3686456E2,1.8594168E1,5.0480083E1,6.887706E2,2.0925983E2,6.631105E2,5.720377E2,1.8594E2,7.992232E1,2.8406262E2,1.503283E2,1.0819207E3,8.576538E2,1.1894168E2,1.1970369E2,1.6628107E2,2.4608507E2,3.380805E2,1.8513826E2,3.3683243E1,1.1942514E2,2.0315622E2,4.917537E1,8.854775E1,3.854835E1,1.4416667E2,9.522121E1,8.76296E0,6.0244036E0,2.2488254E2,4.105717E0,4.4860495E2,3.1895136E1,8.068524E0,6.0816326E0,2.2505223E2,4.7568527E1,2.1381197E2,2.2747915E1,8.373343E2,1.23103485E2,1.3231145E3,1.1739352E2,2.9768276E1,2.8357952E0,1.1136672E2,8.9283E0,6.458373E1,6.201389E0,4.2727423E0,7.8010154E0,2.0166203E1,5.902719E1,1.1220575E2,4.649309E0],"tree_param":{"num_deleted":"0","num_feature":"47","num_nodes":"125","size_leaf_vector":"1"}},{"base_weights":[-2.6849104E-4,1.02647014E-1,-1.4276473E-1,1.6256142E-1,-4.4343702E-2,-7.886656E-2,-3.3996442E-1,2.0987995E-1,-3.6487498E-3,1.7283738E-1,-8.7853804E-2,-4.850965E-2,-3.2474205E-1,-4.3274605E-1,-1.0757416E-1,2.5318998E-1,2.5369398E-2,-3.3138435E-2,4.722664E-1,2.6431775E-2,2.8972492E-1,6.5164655E-2,-1.4701377E-1,1.6401495E-3,-1.9761015E-1,-4.9196094E-1,-1.937812E-1,-3.9145014E-1,-8.0970675E-1,-2.1749374E-1,1.305564E-1,8.672073E-2,3.0267265E-1,-9.3567826E-2,3.581827E-1,2.3931151E-2,-2.8746173E-1,-2.2921665E-1,6.981876E-1,-1.7367664E-1,3.3648533E-1,-3.3917752E-1,3.559156E-1,-7.4383914E-2,2.2280586E-1,-1.5498115E-1,1.5095283E0,-9.513581E-2,1.01625144E-1,-2.788824E-1,-3.3079356E-2,-5.3831756E-1,4.009946E-2,-2.1743737E-1,9.6994925E-1,-5.171322E-1,-2.9818302E-1,-8.2825905E-1,4.5353975E-2,-2.3040953E-1,1.07624374E-1,3.8932607E-1,-2.7863622E-1,-2.4600415E-2,2.357345E-2,3.9620884E-2,2.1112053E-2,-3.4756105E-2,-3.2881543E-3,2.3673957E-2,8.2199864E-2,1.133034E-3,1.11536555E-1,-4.129402E-2,-4.6426766E-3,5.4907918E-2,-6.1234545E-2,9.2920534E-2,-1.085037E-2,-2.6669774E-2,6.1217863E-2,6.1076403E-2,-2.0369512E-3,-3.3854009E-3,-6.6136226E-2,7.392984E-2,2.1627694E-2,-3.3701751E-3,-7.527098E-2,-1.06571615E-2,4.086441E-2,-2.724059E-2,-8.692163E-3,8.526347E-3,2.8860185E-1,5.42888E-3,-1.7592028E-2,2.5769396E-2,2.9105004E-3,2.0589283E-2,-3.1651E-2,-3.4084212E-2,4.8056697E-3,-5.8561493E-2,1.673924E-3,1.3459778E-1,-1.7364735E-2,-2.3896797E-2,9.2126235E-2,-6.085211E-3,1.6077852E-1,-5.2914973E-2,7.931099E-2,-3.203774E-2,2.7884496E-2,-9.600012E-2,-6.402432E-2,-1.2045178E-2,-4.225472E-2,1.799763E-2,9.7372025E-2,8.536724E-2,-3.7709843E-2],"categories":[],"categories_nodes":[],"categories_segments":[],"categories_sizes":[],"default_left":[0,0,0,0,0,0,0,0,0,0,0,0,0,0,0,0,0,0,0,0,0,0,0,0,0,0,0,0,0,0,0,0,0,0,0,0,0,0,0,0,0,0,0,0,0,0,0,0,0,0,0,0,0,0,0,0,0,0,0,0,0,0,0,0,0,0,0,0,0,0,0,0,0,0,0,0,0,0,0,0,0,0,0,0,0,0,0,0,0,0,0,0,0,0,0,0,0,0,0,0,0,0,0,0,0,0,0,0,0,0,0,0,0,0,0,0,0,0,0,0,0,0,0],"id":12,"left_children":[1,3,5,7,9,11,13,15,17,19,21,23,25,27,29,31,33,35,37,39,41,43,45,47,49,51,53,55,57,59,61,63,65,67,69,71,73,75,77,79,81,83,85,87,89,91,93,95,97,99,101,103,105,107,109,111,113,115,-1,117,-1,119,121,-1,-1,-1,-1,-1,-1,-1,-1,-1,-1,-1,-1,-1,-1,-1,-1,-1,-1,-1,-1,-1,-1,-1,-1,-1,-1,-1,-1,-1,-1,-1,-1,-1,-1,-1,-1,-1,-1,-1,-1,-1,-1,-1,-1,-1,-1,-1,-1,-1,-1,-1,-1,-1,-1,-1,-1,-1,-1,-1,-1],"loss_changes":[1.9316452E2,6.736262E1,6.9575424E1,4.2734985E1,2.09504E1,3.1132935E1,2.9093918E1,3.3792282E1,1.6928473E1,6.325942E0,1.67239E1,2.7784227E1,9.944126E0,1.4713623E1,1.0157059E1,2.8189484E1,3.1905134E1,1.6490587E1,1.1313922E1,1.0320968E1,8.683426E0,1.1356829E1,1.7812307E1,2.6923918E1,1.2496494E1,4.97171E0,7.333948E0,1.0069153E1,2.5879173E0,4.678114E0,1.3114706E1,3.9042038E1,2.2524399E1,9.144037E0,1.1757589E1,1.2756738E1,6.278349E0,5.6731668E0,1.0067818E1,7.560088E0,6.396047E0,1.9548397E0,9.829672E0,7.541134E0,1.487546E1,1.057671E1,1.2434844E1,1.7077631E1,1.548198E1,1.1481659E1,7.766253E0,4.8582153E0,4.9831886E0,6.4573708E0,3.6075E0,6.2480316E0,6.531101E0,1.6984329E0,0E0,5.512432E0,0E0,9.08165E0,5.6921496E0,0E0,0E0,0E0,0E0,0E0,0E0,0E0,0E0,0E0,0E0,0E0,0E0,0E0,0E0,0E0,0E0,0E0,0E0,0E0,0E0,0E0,0E0,0E0,0E0,0E0,0E0,0E0,0E0,0E0,0E0,0E0,0E0,0E0,0E0,0E0,0E0,0E0,0E0,0E0,0E0,0E0,0E0,0E0,0E0,0E0,0E0,0E0,0E0,0E0,0E0,0E0,0E0,0E0,0E0,0E0,0E0,0E0,0E0,0E0,0E0],"parents":[2147483647,0,0,1,1,2,2,3,3,4,4,5,5,6,6,7,7,8,8,9,9,10,10,11,11,12,12,13,13,14,14,15,15,16,16,17,17,18,18,19,19,20,20,21,21,22,22,23,23,24,24,25,25,26,26,27,27,28,28,29,29,30,30,31,31,32,32,33,33,34,34,35,35,36,36,37,37,38,38,39,39,40,40,41,41,42,42,43,43,44,44,45,45,46,46,47,47,48,48,49,49,50,50,51,51,52,52,53,53,54,54,55,55,56,56,57,57,59,59,61,61,62,62],"right_children":[2,4,6,8,10,12,14,16,18,20,22,24,26,28,30,32,34,36,38,40,42,44,46,48,50,52,54,56,58,60,62,64,66,68,70,72,74,76,78,80,82,84,86,88,90,92,94,96,98,100,102,104,106,108,110,112,114,116,-1,118,-1,120,122,-1,-1,-1,-1,-1,-1,-1,-1,-1,-1,-1,-1,-1,-1,-1,-1,-1,-1,-1,-1,-1,-1,-1,-1,-1,-1,-1,-1,-1,-1,-1,-1,-1,-1,-1,-1,-1,-1,-1,-1,-1,-1,-1,-1,-1,-1,-1,-1,-1,-1,-1,-1,-1,-1,-1,-1,-1,-1,-1,-1],"split_conditions":[1E1,6E0,7E0,8.3333336E-2,6E0,1.8E1,4E0,7E1,1.12E2,6.67E2,-5.4545456E-1,1E-1,4.8387095E-1,2.0666666E0,4.923077E0,-2.6923077E0,1.07E2,6.5E1,2.1052632E-1,8E0,6.7E1,6.67E2,1.14E2,1.8181819E-1,4.92539E4,2.777778E-1,1.3E1,1.1E1,7.9E1,4.4444445E-1,2.3076923E-1,7.4E1,4E0,4.8387095E-1,1.16E2,1.44E2,1.092E3,7.4074075E-2,9E1,1.25E0,2E0,6.1538464E-1,7.6666664E1,5.4545456E-1,-1E0,-6.363636E-1,9E1,-8.333333E-1,7.7666664E1,9E0,0E0,6.5E0,1E0,1.12666664E2,6.25E-1,1.09E2,3.4E1,4E0,4.5353975E-2,5.5E1,1.07624374E-1,1.402E3,3.5E1,-2.4600415E-2,2.357345E-2,3.9620884E-2,2.1112053E-2,-3.4756105E-2,-3.2881543E-3,2.3673957E-2,8.2199864E-2,1.133034E-3,1.11536555E-1,-4.129402E-2,-4.6426766E-3,5.4907918E-2,-6.1234545E-2,9.2920534E-2,-1.085037E-2,-2.6669774E-2,6.1217863E-2,6.1076403E-2,-2.0369512E-3,-3.3854009E-3,-6.6136226E-2,7.392984E-2,2.1627694E-2,-3.3701751E-3,